55 20
1 -0.2539 -0.3079 -0.4168 -0.6186 -0.7986 -0.7872 -0.6240 -0.6229 -0.4913 -0.5308 -0.4881 -0.5339 -0.6339 -0.5881 -0.4286 -0.3298 -0.4561 -0.3197 -0.3984 -0.3586 
1 -0.0988 -0.0436 -0.0569 -0.3019 -0.5512 -0.5378 -0.4974 -0.4451 -0.3803 -0.3600 -0.3290 -0.3298 -0.4157 -0.3530 -0.3899 -0.2791 -0.3772 -0.2939 -0.2935 -0.2399 
1 -0.1358 -0.0687 -0.0559 -0.3145 -0.4979 -0.5378 -0.4607 -0.4592 -0.4082 -0.1744 -0.1507 -0.2636 -0.3748 -0.4051 -0.3227 -0.2243 -0.3181 -0.2754 -0.3213 -0.2472 
1 -0.1569 -0.0653 -0.0568 -0.3219 -0.4714 -0.5399 -0.4972 -0.5318 -0.5129 -0.2054 -0.1833 -0.1527 -0.2869 -0.3691 -0.3699 -0.2458 -0.2360 -0.2438 -0.1676 -0.1461 
1 -0.1601 -0.0436 -0.0399 -0.3662 -0.4686 -0.5151 -0.4643 -0.4888 -0.3782 -0.2118 -0.2272 -0.3036 -0.2719 -0.3946 -0.4909 -0.3544 -0.3800 -0.2315 -0.1546 -0.1756 
1 -0.1644 -0.0328 -0.0333 -0.3329 -0.4183 -0.4536 -0.4410 -0.3498 -0.2937 -0.1086 -0.0829 -0.2158 -0.2970 -0.3657 -0.4312 -0.2715 -0.3069 -0.1983 -0.2006 -0.1584 
1 -0.1554 -0.0160 -0.0195 -0.2966 -0.4062 -0.4497 -0.4547 -0.3311 -0.3100 -0.0430 -0.0242 -0.1164 -0.1116 -0.2049 -0.3057 -0.1565 -0.2167 -0.1277 -0.1526 -0.1149 
1 -0.1400 -0.0127 -0.0185 -0.2757 -0.3717 -0.4054 -0.4321 -0.3168 -0.3102 0.0193 0.0266 -0.0975 -0.1505 -0.2741 -0.1331 0.0040 -0.1083 -0.0936 -0.0499 -0.0373 
1 -0.1168 -0.0017 -0.0114 -0.2156 -0.3525 -0.3627 -0.3560 -0.2871 -0.3604 0.0072 0.0152 -0.0820 -0.1491 -0.2406 -0.1596 -0.0185 -0.1304 -0.0953 -0.0264 -0.0074 
1 -0.0947 0.0051 -0.0051 -0.2030 -0.3782 -0.3834 -0.3709 -0.2825 -0.2546 -0.0114 -0.0229 -0.0616 -0.1449 -0.2230 -0.1957 -0.0458 -0.1115 -0.0640 -0.0080 0.0350 
1 -0.0722 0.0202 0.0003 -0.1628 -0.3294 -0.3723 -0.3704 -0.2659 -0.1929 0.0011 -0.0029 -0.1226 -0.2203 -0.2252 -0.1015 0.0308 -0.2318 -0.1385 -0.0781 -0.0164 
1 -0.0736 0.0619 0.0052 -0.1371 -0.2108 -0.3130 -0.1507 -0.0986 0.0165 0.1870 0.1689 0.1480 0.0604 0.0918 0.1255 0.3070 0.1827 0.0789 -0.0227 -0.0039 
1 0.0754 0.2123 0.1983 0.2142 0.2079 0.1385 0.0667 0.0770 0.2306 0.4830 0.4691 0.2688 0.2954 0.3031 0.2885 0.4820 0.2502 0.0900 0.1570 0.1895 
1 0.1253 0.2195 0.1769 0.2531 0.2765 0.2383 0.1644 0.1350 0.3224 0.6218 0.6209 0.3146 0.4046 0.4640 0.3811 0.4632 0.3090 0.0620 0.1300 0.2251 
1 0.1537 0.2529 0.2185 0.2863 0.3382 0.3069 0.2143 0.1614 0.3881 0.6256 0.5949 0.3506 0.3670 0.3326 0.1447 0.2052 0.2190 0.1347 0.3616 0.3923 
1 0.1703 0.2651 0.2348 0.3138 0.3849 0.3731 0.2613 0.2598 0.4402 0.5978 0.4586 0.3884 0.4372 0.4204 0.1698 0.2581 0.1024 0.0664 0.2168 0.3260 
1 0.1844 0.2662 0.2409 0.3185 0.4135 0.4074 0.3067 0.2876 0.5075 0.5992 0.4596 0.3471 0.4260 0.4816 0.3190 0.3284 0.2063 0.0796 0.2243 0.2908 
1 0.1902 0.2596 0.2409 0.3287 0.4331 0.4234 0.3240 0.3096 0.5217 0.5309 0.4468 0.3852 0.4175 0.5334 0.3888 0.2822 0.2828 0.0953 0.1184 0.2477 
1 0.1965 0.2561 0.2370 0.3291 0.4408 0.4487 0.3671 0.3403 0.5836 0.5467 0.4244 0.3341 0.4924 0.5074 0.2877 0.3861 0.1528 0.0799 0.1663 0.2439 
1 0.1988 0.2653 0.2494 0.3456 0.4563 0.4544 0.3756 0.3552 0.5327 0.4518 0.3824 0.3615 0.4656 0.4814 0.3596 0.2425 0.2169 0.1292 0.1333 0.2489 
1 0.2098 0.2578 0.2377 0.3383 0.4362 0.4474 0.4153 0.4196 0.5469 0.4245 0.3323 0.3329 0.4735 0.5037 0.2797 0.1429 0.0718 0.1265 0.1772 0.2450 
1 0.2091 0.2556 0.2389 0.3501 0.4487 0.4614 0.4366 0.4888 0.6182 0.4402 0.3368 0.3786 0.4247 0.4817 0.4090 0.3614 0.2824 0.0738 0.1618 0.2023 
1 0.2139 0.2541 0.2277 0.3394 0.4251 0.4412 0.4281 0.4149 0.5116 0.3881 0.3203 0.2841 0.4342 0.5189 0.3510 0.2722 0.2163 0.2306 0.2380 0.1955 
1 0.2220 0.2468 0.2248 0.3347 0.4093 0.4450 0.4449 0.4336 0.4918 0.3660 0.3781 0.3590 0.4172 0.4705 0.3681 0.2848 0.2556 0.2759 0.2189 0.1996 
1 0.2261 0.2412 0.2219 0.3315 0.4040 0.4293 0.4333 0.3760 0.4289 0.3106 0.2580 0.3748 0.4162 0.3664 0.3440 0.2643 0.2133 0.1045 0.1283 0.1780 
1 0.2346 0.2268 0.2136 0.3274 0.3929 0.4372 0.4423 0.4241 0.4033 0.2527 0.2592 0.3343 0.3882 0.3682 0.2941 0.1365 0.1266 0.1709 0.1828 0.1875 
1 0.2381 0.2076 0.1958 0.2990 0.3510 0.4407 0.4237 0.3696 0.3394 0.1807 0.2107 0.2845 0.3459 0.2593 0.2074 0.1418 0.1045 0.3289 0.2567 0.2037 
1 0.2285 0.1968 0.1798 0.2588 0.3413 0.4343 0.4005 0.3420 0.3058 0.1905 0.1756 0.2613 0.3325 0.2546 0.1982 0.1004 0.0811 0.2357 0.1605 0.1444 
1 0.2110 0.1823 0.1332 0.2096 0.3174 0.4358 0.3673 0.3831 0.3346 0.1491 0.0938 0.1998 0.2765 0.1546 0.1583 0.0856 0.0927 0.2845 0.1911 0.1303 
1 0.1869 0.1683 0.0855 0.1734 0.3094 0.4096 0.3155 0.3820 0.2920 0.0186 0.0869 0.1256 0.1583 0.1994 0.2037 0.0437 0.0537 0.2472 0.1555 0.0378 
1 0.1487 0.1440 0.0616 0.1835 0.3297 0.3910 0.3111 0.4454 0.3472 0.0095 0.0387 0.1580 0.2345 0.1911 0.2090 -0.0110 0.1640 0.1834 0.1098 0.0385 
1 0.0923 0.1341 0.0517 0.2409 0.3280 0.3399 0.2646 0.4501 0.3706 0.0403 0.0337 0.2342 0.3042 0.2429 0.2882 0.0428 0.2175 0.1169 -0.0552 -0.0027 
1 0.0496 0.1341 0.0945 0.2912 0.3465 0.3384 0.2962 0.4100 0.3276 0.0961 0.0773 0.2626 0.3135 0.2690 0.3208 0.0686 0.2658 0.2269 0.1464 -0.0095 
1 0.0802 0.1278 0.1179 0.2987 0.3193 0.3031 0.3504 0.4574 0.3331 0.1205 0.1121 0.2991 0.2921 0.2929 0.2937 0.1268 0.3323 0.2150 0.0780 0.0673 
1 0.1343 0.1060 0.1256 0.2959 0.2967 0.2732 0.3460 0.4221 0.3020 0.0839 0.0903 0.1838 0.1735 0.2426 0.2733 0.1330 0.2982 0.1916 0.1778 0.0509 
1 0.1638 0.0758 0.1198 0.2572 0.2391 0.2149 0.2919 0.2955 0.1984 0.0530 0.0462 0.1865 0.1821 0.2109 0.2680 0.0641 0.2177 0.1067 0.0894 -0.0465 
1 0.1560 -0.0204 0.0859 0.1428 0.1295 0.1235 0.1926 0.2143 0.0398 -0.0884 -0.1132 -0.0034 -0.0447 0.0743 0.1662 -0.0640 0.1781 0.0651 -0.0407 -0.0109 
1 0.0976 0.0148 0.0184 0.1463 0.1282 0.1222 0.1896 0.2254 -0.0906 -0.1557 -0.1141 -0.0089 0.0244 -0.0472 -0.0215 -0.0394 0.0960 0.0322 -0.0667 -0.0749 
1 0.0350 -0.0095 -0.0430 0.1957 0.1669 0.1076 0.2336 0.2594 -0.0933 -0.1997 -0.1954 -0.1032 -0.0343 -0.0480 0.0136 -0.1132 0.1727 0.0868 -0.0647 -0.0921 
1 -0.0145 -0.0207 -0.0213 0.2124 0.1662 0.1524 0.2270 0.2105 -0.0842 -0.2181 -0.2116 -0.1010 -0.0408 -0.0286 0.0831 -0.1380 0.1450 0.0619 -0.0999 -0.1670 
1 0.0359 -0.0093 0.0520 0.2443 0.1775 0.1476 0.2396 0.1318 -0.1012 -0.1680 -0.1333 -0.0615 -0.0656 -0.0270 0.0510 0.0033 0.1765 0.1058 0.0580 0.0267 
1 0.0521 -0.0447 0.0341 0.2028 0.1520 0.1165 0.1166 0.0340 -0.1903 -0.2334 -0.2296 -0.1737 -0.1166 -0.1191 -0.0987 -0.1472 0.0215 0.0053 0.0265 -0.0483 
1 0.0267 -0.1604 0.0410 0.1277 0.1126 0.1065 0.0894 -0.0209 -0.2468 -0.3339 -0.2149 -0.2510 -0.2098 -0.3209 -0.1298 -0.1601 -0.0859 -0.0778 -0.0237 -0.0471 
1 -0.0124 -0.1470 0.0009 0.0360 0.0596 0.0942 0.1602 -0.0576 -0.2043 -0.2557 -0.2322 -0.2267 -0.2943 -0.2110 -0.1220 -0.1254 -0.1160 -0.0703 -0.0178 -0.0376 
1 -0.0749 -0.1562 -0.0939 -0.0381 -0.0422 -0.0013 0.0374 -0.1918 -0.3407 -0.3704 -0.3075 -0.3059 -0.3393 -0.3464 -0.0731 -0.1797 -0.1382 -0.1743 -0.0466 -0.0792 
1 -0.0975 -0.1378 -0.1395 -0.0359 -0.0306 0.0399 -0.0648 -0.2312 -0.2991 -0.3556 -0.3159 -0.2847 -0.3461 -0.3003 -0.1976 -0.1871 -0.1964 -0.0885 0.0856 -0.0032 
1 -0.1181 -0.1735 -0.1468 -0.1103 -0.0627 -0.0013 -0.1940 -0.3533 -0.3278 -0.2880 -0.2618 -0.2508 -0.3077 -0.2610 -0.1797 -0.1526 -0.1819 -0.1234 -0.0489 -0.0748 
1 -0.0695 -0.2642 -0.2121 -0.1887 -0.1656 -0.1761 -0.2209 -0.3751 -0.3913 -0.3965 -0.3454 -0.4195 -0.3970 -0.3524 -0.3265 -0.2287 -0.2510 -0.1936 -0.1111 -0.1495 
1 -0.1753 -0.2587 -0.1950 -0.4692 -0.3882 -0.3466 -0.4285 -0.5716 -0.5370 -0.4083 -0.3422 -0.3304 -0.4632 -0.4494 -0.3760 -0.3007 -0.3353 -0.2156 -0.1892 -0.2547 
1 -0.4276 -0.3650 -0.3387 -0.5051 -0.5722 -0.5789 -0.5337 -0.4555 -0.4505 -0.3880 -0.3838 -0.3871 -0.4346 -0.3507 -0.4001 -0.2641 -0.2809 -0.2859 -0.2936 -0.2337 
1 -0.3397 -0.5136 -0.5371 -0.6767 -0.6748 -0.7518 -0.7032 -0.5976 -0.4302 -0.3944 -0.3833 -0.3521 -0.4425 -0.4844 -0.4474 -0.3074 -0.3420 -0.3126 -0.3304 -0.3409 
1 -0.2953 -0.3551 -0.4172 -0.4542 -0.5137 -0.5115 -0.5266 -0.4237 -0.3711 -0.4144 -0.3535 -0.3632 -0.4306 -0.3174 -0.2641 -0.1582 -0.2760 -0.1565 -0.1895 -0.2325 
1 -0.4279 -0.5171 -0.5134 -0.6547 -0.6508 -0.6645 -0.5987 -0.5450 -0.4984 -0.5571 -0.3990 -0.4110 -0.5370 -0.4565 -0.3835 -0.2805 -0.2636 -0.1793 -0.2439 -0.2401 
1 -0.3320 -0.5957 -0.5604 -0.7479 -0.6874 -0.7327 -0.5989 -0.6294 -0.6182 -0.4691 -0.4721 -0.3934 -0.4685 -0.4647 -0.4836 -0.2362 -0.1941 -0.2023 -0.2446 -0.2265 
1 -0.5391 -0.7173 -0.6316 -0.7994 -0.6950 -0.6209 -0.5453 -0.5832 -0.5668 -0.4555 -0.3977 -0.4504 -0.5284 -0.4882 -0.4126 -0.2427 -0.1708 -0.1303 -0.2102 -0.2293 
