55 20
1 0.0894 0.0517 0.0226 -0.0414 -0.1675 -0.2704 -0.2267 -0.2304 -0.2896 -0.3741 -0.3051 -0.0543 -0.1428 -0.1284 -0.1382 -0.2546 -0.6055 -0.7352 -0.6913 -0.5570 
1 0.1336 0.1837 0.1333 0.1170 -0.0306 -0.1190 -0.1561 -0.1461 -0.2226 -0.3476 -0.2138 0.0075 -0.0637 -0.0377 -0.0346 -0.1021 -0.3250 -0.5849 -0.5421 -0.4190 
1 0.1735 0.2198 0.1707 0.1608 -0.0066 -0.0740 -0.0484 -0.0618 -0.0855 -0.1416 -0.0266 0.2169 0.1361 0.1667 0.1184 0.0455 -0.2245 -0.4804 -0.4406 -0.3861 
1 0.2063 0.2713 0.1842 0.1334 -0.1587 -0.1411 -0.1195 -0.1117 -0.1165 -0.1824 -0.0750 0.1967 0.0973 0.1209 0.0756 0.0111 -0.2810 -0.5003 -0.4363 -0.3504 
1 0.2452 0.1495 0.1936 0.1201 -0.0857 -0.1169 -0.1109 -0.0593 -0.0722 -0.1569 -0.1000 0.1245 0.0581 0.1260 0.0582 -0.0207 -0.2049 -0.3231 -0.2808 -0.2988 
1 0.2940 0.2096 0.2442 0.1368 -0.0781 -0.0941 -0.1827 -0.0866 -0.0998 -0.1480 -0.0871 0.1835 0.0674 0.1049 0.0032 -0.0436 -0.1330 -0.2321 -0.3487 -0.2967 
1 0.3300 0.2317 0.2897 0.2005 -0.0706 -0.0192 -0.0064 0.0043 -0.0595 -0.1315 -0.1041 0.2607 0.1738 0.1576 -0.0600 -0.0788 -0.0662 -0.2153 -0.3027 -0.2064 
1 0.3703 0.2690 0.3394 0.2813 -0.0266 -0.0155 -0.0764 -0.0247 -0.0417 -0.0955 0.0173 0.1603 0.1036 0.1308 -0.0379 -0.1168 -0.2797 -0.3758 -0.2517 -0.1975 
1 0.3814 0.3172 0.3861 0.3366 0.0929 0.0910 -0.0827 -0.1435 -0.1213 -0.0931 0.1139 0.2798 0.2095 0.2521 0.0328 -0.0561 -0.1342 -0.2719 -0.1470 -0.1594 
1 0.4023 0.3761 0.3813 0.3328 0.0949 0.1020 -0.0657 -0.1341 -0.0475 -0.0229 0.2393 0.3931 0.2697 0.2893 0.0203 -0.0949 -0.1495 -0.3588 -0.1938 -0.1514 
1 0.4358 0.3869 0.3355 0.2891 0.2151 0.1542 0.1028 0.0837 0.0310 0.0675 0.3999 0.4003 0.3467 0.3285 0.1270 0.0040 -0.2200 -0.3935 -0.2130 -0.1334 
1 0.4424 0.4338 0.3085 0.3599 0.3445 0.2081 0.0414 0.0511 0.0900 0.0540 0.4115 0.3745 0.3651 0.2586 0.1211 -0.0473 -0.2337 -0.2436 -0.1360 -0.0640 
1 0.2976 0.3875 0.2918 0.3394 0.4054 0.2599 0.1662 0.0442 0.1218 0.2183 0.4705 0.3904 0.4421 0.3048 0.1412 -0.0228 -0.1971 -0.2254 -0.1140 -0.1301 
1 0.3792 0.4053 0.2759 0.3711 0.4735 0.2943 0.2092 0.1729 0.1438 0.3440 0.5688 0.4235 0.4589 0.2828 0.2043 0.0315 -0.1638 -0.2774 -0.1299 -0.1469 
1 0.3571 0.3860 0.2930 0.3618 0.5231 0.3875 0.2750 0.2077 0.2506 0.3772 0.5376 0.3879 0.4616 0.2210 0.1021 -0.0918 -0.2466 -0.1113 -0.0081 0.0018 
1 0.3379 0.3550 0.3035 0.3964 0.5604 0.4265 0.3127 0.2578 0.2343 0.4184 0.5460 0.3673 0.3541 0.1503 0.1164 -0.0328 -0.2849 -0.2526 -0.0651 -0.0556 
1 0.3198 0.3477 0.3186 0.3910 0.5698 0.4431 0.3410 0.2502 0.3370 0.4975 0.4949 0.3307 0.3126 0.1680 0.0941 -0.0462 -0.2695 -0.2624 -0.1288 -0.1091 
1 0.3202 0.3242 0.3257 0.4008 0.5738 0.4599 0.3422 0.2696 0.4016 0.4708 0.4898 0.3253 0.3416 0.1228 0.0432 -0.1247 -0.3222 -0.1329 -0.0239 -0.1751 
1 0.3342 0.2991 0.3169 0.4117 0.5249 0.4173 0.3654 0.3440 0.3659 0.5197 0.4167 0.2470 0.3334 0.2102 -0.0804 -0.2702 -0.3966 -0.2762 -0.1291 -0.2408 
1 0.3313 0.2932 0.2572 0.3815 0.4853 0.3820 0.3447 0.3378 0.3343 0.4260 0.3222 0.2212 0.1099 0.0260 -0.0090 -0.1301 -0.3138 -0.1478 -0.0519 -0.0633 
1 0.3596 0.2673 0.2519 0.3351 0.4148 0.3661 0.2947 0.3113 0.2718 0.2955 0.2566 0.0888 0.1564 0.0757 -0.1932 -0.2331 -0.4050 -0.2008 -0.1399 -0.1246 
1 0.3656 0.2351 0.2052 0.2239 0.2986 0.3770 0.3023 0.2397 0.2852 0.3297 0.2476 0.0956 0.1796 0.0456 -0.2160 -0.3244 -0.4256 -0.1684 -0.0294 -0.0077 
1 0.3396 0.2694 0.2092 0.2158 0.3201 0.3973 0.3007 0.1954 0.2324 0.3656 0.1410 0.0184 0.1349 -0.0016 -0.1386 -0.2017 -0.3999 -0.1223 0.0239 0.1164 
1 0.2352 0.2889 0.1835 0.2146 0.3315 0.3397 0.2595 0.2232 0.3246 0.4429 0.2061 0.1116 0.2481 0.1241 -0.1494 -0.2205 -0.4054 -0.1278 0.0602 0.1791 
1 0.1244 0.2049 0.0897 0.1256 0.0653 0.0382 -0.0035 0.0760 0.2265 0.3105 0.0492 -0.0379 -0.0949 -0.2596 -0.2649 -0.2757 -0.5876 -0.3595 -0.1252 -0.0267 
1 0.1432 0.0245 0.0621 -0.0167 -0.0541 0.0956 0.0530 -0.0094 0.1333 0.0539 -0.0981 -0.2209 -0.0628 -0.1716 -0.2705 -0.2446 -0.2427 -0.2650 -0.3000 -0.1409 
1 -0.1761 0.0072 -0.0125 -0.0598 -0.1081 -0.0263 -0.0069 0.0383 -0.0397 -0.0543 -0.1329 -0.0959 -0.0950 -0.2472 -0.2237 -0.1066 0.0655 0.0141 -0.0441 -0.0862 
1 -0.1746 -0.1267 -0.2247 -0.2851 -0.1607 -0.1549 -0.0043 0.0074 -0.0414 -0.0890 -0.1976 -0.1606 -0.0482 -0.1689 -0.0010 0.0005 0.1466 0.1446 0.0315 0.0062 
1 -0.1629 -0.2510 -0.2284 -0.2365 -0.2385 -0.1110 -0.0733 -0.1341 -0.0388 0.0271 -0.1696 -0.0470 -0.0509 -0.1193 -0.0032 0.1022 0.3196 0.3273 0.1327 0.0743 
1 -0.1921 -0.3036 -0.1978 -0.3186 -0.1871 -0.1083 -0.1473 -0.1319 -0.1587 -0.1029 -0.0903 -0.1879 -0.2847 -0.1101 -0.0187 0.0971 0.2508 0.2930 0.2386 0.1857 
1 -0.2073 -0.3711 -0.2255 -0.1209 -0.1372 -0.1937 -0.1770 -0.0665 -0.0677 -0.1205 -0.1225 -0.1837 -0.2378 -0.1730 0.0348 0.1202 0.5248 0.4680 0.3098 0.2533 
1 -0.1210 -0.2197 -0.1588 -0.1211 -0.1240 -0.0765 -0.0015 0.0650 0.0244 -0.0239 -0.0473 -0.0506 -0.1269 -0.0347 0.0143 0.1278 0.5822 0.5098 0.2661 0.2603 
1 -0.1433 -0.0293 -0.0369 -0.0250 -0.0216 -0.0164 0.0682 0.0960 0.0785 0.0272 0.0034 -0.0439 -0.1306 -0.0443 -0.0223 0.0357 0.6720 0.6142 0.2577 0.1682 
1 -0.0333 -0.0089 -0.0122 -0.0103 0.0086 0.0119 0.0823 0.1080 0.0999 0.0219 -0.0038 -0.0573 -0.0823 -0.0475 0.0425 0.0784 0.6281 0.5910 0.2323 0.2221 
1 -0.1810 -0.1248 -0.0895 -0.1444 -0.1050 -0.0546 -0.0860 -0.0093 -0.0049 -0.1019 -0.1100 -0.2035 -0.2495 -0.1043 0.0103 0.1052 0.6243 0.5870 0.2523 0.3022 
1 -0.2917 -0.2218 -0.1560 -0.2669 -0.1678 -0.1838 -0.0683 0.0154 0.0185 -0.0661 -0.0788 -0.1469 -0.1671 -0.0758 0.0316 0.1319 0.4222 0.4621 0.3818 0.4556 
1 -0.3720 -0.2491 -0.2919 -0.2798 -0.2357 -0.2411 -0.1196 -0.0987 -0.1063 -0.1671 -0.1495 -0.2178 -0.0712 -0.0653 0.0278 0.1610 0.2724 0.4536 0.4989 0.3168 
1 -0.2163 -0.1989 -0.1480 -0.1567 -0.1563 -0.1708 -0.0566 -0.0326 -0.0162 -0.0755 -0.0858 -0.1304 -0.1494 -0.0776 0.1348 0.2500 0.3116 0.4144 0.4458 0.3222 
1 -0.2435 -0.2404 -0.2099 -0.1838 -0.1568 -0.1754 -0.0894 -0.0296 -0.0524 -0.1174 -0.1177 -0.1549 -0.0722 -0.0429 0.0183 0.1608 0.3284 0.4298 0.4855 0.2183 
1 -0.3699 -0.3792 -0.2307 -0.2714 -0.2407 -0.1781 -0.0459 -0.0536 -0.0774 -0.1586 -0.2139 -0.2383 -0.2938 -0.0470 0.0694 0.0990 0.2710 0.3471 0.3701 0.3428 
1 -0.3759 -0.2363 -0.2413 -0.2440 -0.2055 -0.1640 -0.1102 -0.0646 -0.0949 -0.1413 -0.1696 -0.1488 -0.0969 -0.0229 0.0485 0.2777 0.2371 0.3203 0.2630 0.2735 
1 -0.2122 -0.2755 -0.2365 -0.2118 -0.1700 -0.1098 -0.0998 -0.0561 -0.0599 -0.0766 -0.1195 -0.1323 -0.1559 -0.1514 0.0886 0.2253 0.2583 0.3264 0.3487 0.2481 
1 -0.5260 -0.2784 -0.2676 -0.2057 -0.1913 -0.1647 -0.1711 -0.1211 -0.1524 -0.2169 -0.2469 -0.2190 -0.1443 -0.0415 0.0181 0.1630 0.1986 0.4422 0.3989 0.2569 
1 -0.4193 -0.2206 -0.3027 -0.2489 -0.2559 -0.2042 -0.1724 -0.1134 -0.1252 -0.1288 -0.1014 -0.2042 -0.1561 -0.1305 0.1066 0.2260 0.3552 0.3956 0.2566 0.2107 
1 -0.3241 -0.2591 -0.3478 -0.2660 -0.2923 -0.1358 -0.1160 -0.1625 -0.2040 -0.1485 -0.1816 -0.1942 -0.1548 -0.0574 0.1154 0.2508 0.3486 0.2864 0.1933 0.2508 
1 -0.3776 -0.4769 -0.4163 -0.2779 -0.1968 -0.1765 -0.2275 -0.1568 -0.1183 -0.2147 -0.2598 -0.2155 -0.0676 -0.0478 0.0337 0.1440 0.1752 0.3036 0.2909 0.2723 
1 -0.4839 -0.3083 -0.1747 -0.1786 -0.2047 -0.1125 -0.0775 -0.1160 -0.0888 -0.0926 -0.3076 -0.0962 -0.1489 -0.1271 0.0731 0.1268 0.2534 0.2678 0.1760 0.1368 
1 -0.3790 -0.4555 -0.4361 -0.3573 -0.4911 -0.3518 -0.1167 -0.0574 -0.2286 -0.2054 -0.1760 -0.1710 -0.1061 -0.1255 0.0265 0.1021 0.2267 0.2734 0.0912 0.0703 
1 -0.2485 -0.3232 -0.3012 -0.3151 -0.2005 -0.1807 -0.0594 -0.1073 -0.1260 -0.2027 -0.2200 -0.2142 -0.2072 -0.0545 0.0429 0.0909 0.1378 0.1669 0.0637 0.2137 
1 -0.2240 -0.1572 -0.1756 -0.2426 -0.1636 -0.2848 -0.2528 -0.1649 -0.1515 -0.0336 -0.2303 -0.2573 -0.1458 -0.1133 0.0270 0.2001 0.2570 0.1342 0.0883 0.1465 
1 -0.2411 -0.1894 -0.2069 -0.2312 -0.3254 -0.2672 -0.0496 -0.1300 -0.0992 -0.0982 -0.1100 -0.1325 -0.2290 -0.0604 0.0372 0.1954 0.2446 0.1435 0.1562 0.1077 
1 -0.1577 -0.3403 -0.2744 -0.4614 -0.1898 -0.2325 -0.2229 -0.1071 -0.1114 -0.1582 -0.2498 -0.1820 -0.2288 -0.0440 0.0746 0.1852 0.1798 0.0054 -0.0521 -0.0276 
1 -0.2635 -0.3098 -0.2540 -0.2675 -0.2319 -0.1130 -0.1401 -0.1350 -0.1848 -0.1488 -0.2508 -0.3403 -0.3115 -0.1884 -0.0623 -0.1074 -0.1641 -0.2786 -0.2663 -0.2861 
1 -0.3007 -0.3056 -0.2534 -0.2898 -0.2927 -0.1489 0.0020 -0.1601 -0.2178 -0.2840 -0.4092 -0.4252 -0.3633 -0.2638 -0.1998 -0.2209 -0.2314 -0.3216 -0.2667 -0.3200 
1 -0.3306 -0.3348 -0.2623 -0.3009 -0.1727 -0.0642 -0.0920 -0.1829 -0.2830 -0.3465 -0.3702 -0.4407 -0.4204 -0.2811 -0.2103 -0.2806 -0.3782 -0.4770 -0.4555 -0.4516 
