131 20
1 -0.0323 0.0647 -0.0030 -0.2021 -0.3703 -0.4527 -0.4313 -0.4132 -0.5202 -0.5765 -0.5197 -0.3472 -0.3049 -0.4167 -0.3634 -0.3385 -0.4761 -0.6413 -0.6881 -0.5623 
1 -0.1550 -0.0274 -0.0729 -0.1836 -0.4783 -0.4171 -0.3959 -0.4021 -0.5449 -0.4994 -0.5244 -0.2238 -0.1865 -0.3391 -0.1723 -0.1066 -0.3187 -0.4607 -0.5599 -0.4071 
1 -0.0605 0.0795 -0.0308 -0.2166 -0.4680 -0.4948 -0.4041 -0.3729 -0.4054 -0.5741 -0.5455 -0.4732 -0.4397 -0.4630 -0.4043 -0.4080 -0.5497 -0.6671 -0.6341 -0.5111 
1 -0.0196 -0.0421 -0.1064 -0.1289 -0.3332 -0.3757 -0.3839 -0.2919 -0.3539 -0.3679 -0.4512 -0.2455 -0.1836 -0.2771 -0.1850 -0.0457 -0.1772 -0.3333 -0.4234 -0.2570 
1 -0.0288 -0.2752 -0.1303 -0.1316 -0.3444 -0.4919 -0.4199 -0.3673 -0.3820 -0.4347 -0.4463 -0.3468 -0.3460 -0.3321 -0.1501 -0.1036 -0.1241 -0.2459 -0.3866 -0.3168 
1 0.0153 -0.0552 -0.1832 -0.2278 -0.2971 -0.2611 -0.2932 -0.2431 -0.3050 -0.3609 -0.4404 -0.3376 -0.2981 -0.2592 -0.1983 -0.0678 -0.1857 -0.2880 -0.3733 -0.3458 
1 0.0058 -0.0546 -0.2379 -0.1994 -0.2297 -0.2810 -0.3019 -0.2661 -0.2890 -0.4073 -0.4439 -0.3903 -0.3050 -0.3366 -0.1151 -0.0754 -0.0829 -0.1423 -0.2324 -0.2476 
1 0.0214 -0.0378 -0.3019 -0.2136 -0.2597 -0.3480 -0.3034 -0.3348 -0.3570 -0.4215 -0.3763 -0.4676 -0.3756 -0.3019 -0.1575 -0.0473 -0.0715 -0.0971 -0.2243 -0.2594 
1 0.0336 -0.0443 -0.1860 -0.1982 -0.2847 -0.2418 -0.3586 -0.2653 -0.3618 -0.5078 -0.5125 -0.3448 -0.3781 -0.2915 -0.0899 -0.0374 -0.2010 -0.3093 -0.2829 -0.2016 
1 -0.0072 -0.0556 -0.1926 -0.2265 -0.2547 -0.2191 -0.2675 -0.3293 -0.3177 -0.3336 -0.4298 -0.3706 -0.3238 -0.2999 -0.1523 -0.1400 0.0419 0.0560 -0.1441 -0.1974 
1 0.0133 -0.1034 -0.2360 -0.2707 -0.2759 -0.2937 -0.3350 -0.2954 -0.2730 -0.3689 -0.3350 -0.3187 -0.2419 -0.2601 -0.0330 0.0185 0.0154 -0.0721 -0.1504 -0.2096 
1 -0.0314 -0.1082 -0.1220 -0.2279 -0.3103 -0.3645 -0.2471 -0.1845 -0.2158 -0.2554 -0.3658 -0.2908 -0.2114 -0.2040 -0.0726 -0.0841 -0.0339 -0.0265 -0.0593 -0.1553 
1 -0.0118 -0.0870 -0.1109 -0.2293 -0.3766 -0.3271 -0.2431 -0.2415 -0.2676 -0.4411 -0.4543 -0.4520 -0.3410 -0.2404 -0.0160 -0.0520 0.0292 -0.0136 -0.1358 -0.1051 
1 0.0085 -0.1462 -0.2921 -0.2725 -0.3181 -0.2797 -0.3569 -0.2767 -0.3698 -0.4263 -0.4443 -0.3357 -0.2053 -0.2440 -0.1080 -0.0672 -0.1243 -0.1078 -0.1420 -0.1690 
1 0.0551 -0.0643 -0.1294 -0.2195 -0.2835 -0.2575 -0.2483 -0.2057 -0.2589 -0.3804 -0.4077 -0.1797 -0.0407 -0.1349 -0.0342 -0.0828 -0.1287 -0.1956 -0.1633 -0.1491 
1 0.0609 -0.0547 -0.1049 -0.1070 -0.2406 -0.2371 -0.2437 -0.3054 -0.2481 -0.3497 -0.3402 -0.0956 0.0533 -0.1047 -0.0305 -0.0680 -0.1317 -0.1539 -0.1294 -0.0580 
1 0.1067 0.0723 -0.0655 -0.1827 -0.2274 -0.2937 -0.2637 -0.2115 -0.2437 -0.3217 -0.3070 -0.0584 0.0169 -0.0354 0.0433 -0.0163 -0.0837 -0.1157 -0.1461 -0.1571 
1 0.1022 0.0401 -0.0736 -0.2029 -0.2087 -0.2234 -0.1866 -0.1750 -0.2097 -0.2713 -0.2854 -0.1097 -0.0583 -0.0463 0.0475 0.0185 -0.0484 -0.0885 -0.0738 -0.0461 
1 0.1028 0.0977 -0.0042 -0.1728 -0.1618 -0.1991 -0.2530 -0.1836 -0.1884 -0.3399 -0.2818 -0.0715 -0.0401 -0.1071 -0.0219 -0.0253 -0.1636 -0.0521 -0.0322 -0.0393 
1 0.0759 0.0618 -0.0443 -0.1575 -0.1801 -0.1846 -0.1761 -0.1473 -0.1824 -0.2883 -0.2938 -0.0700 -0.0261 -0.0020 0.0882 0.1094 -0.1383 -0.1052 -0.0361 0.0050 
1 0.0928 -0.0227 -0.0616 -0.1649 -0.2320 -0.2308 -0.1596 -0.1344 -0.2199 -0.3236 -0.3223 -0.1313 -0.0754 0.0185 0.0971 0.0652 -0.0229 0.0440 -0.0248 -0.1123 
1 0.0561 -0.0392 -0.1056 -0.1802 -0.1597 -0.2807 -0.1926 -0.1673 -0.1710 -0.2057 -0.2827 -0.0130 -0.0075 0.0193 0.1141 0.0670 -0.0671 -0.0345 -0.0888 -0.1304 
1 0.0748 -0.0242 -0.0233 -0.0796 -0.2533 -0.2670 -0.1863 -0.1391 -0.1992 -0.2858 -0.3399 -0.0176 0.0047 0.0414 0.1277 0.0560 0.0008 0.1082 -0.0108 -0.0995 
1 0.0621 0.0401 -0.0194 -0.3521 -0.2005 -0.3100 -0.1909 -0.2305 -0.2489 -0.3378 -0.3594 -0.0389 0.0715 0.0450 0.0774 0.0673 -0.0047 -0.0690 -0.0941 -0.0994 
1 0.0920 -0.0009 -0.0963 -0.1622 -0.1615 -0.1291 -0.1676 -0.1807 -0.2428 -0.2666 -0.3365 -0.0649 -0.0046 -0.1025 0.0803 -0.0373 -0.0838 0.0633 -0.0237 -0.0247 
1 0.0796 0.0864 -0.0395 -0.1745 -0.2169 -0.2046 -0.1742 -0.2605 -0.3066 -0.2860 -0.3694 -0.0143 0.0556 -0.0198 0.0227 -0.0312 -0.0847 -0.0074 -0.0131 -0.0053 
1 0.1142 0.1591 -0.1009 -0.2046 -0.0608 -0.1509 -0.1600 -0.1895 -0.1760 -0.2785 -0.2687 -0.0085 0.0090 0.0779 0.1047 0.1009 -0.0607 -0.0350 -0.0757 -0.0211 
1 0.2048 0.1272 -0.0388 -0.0671 -0.1978 -0.2165 -0.2107 -0.1794 -0.2967 -0.3089 -0.2540 0.0796 0.1531 0.1369 0.1634 0.0755 -0.1413 -0.1262 -0.0955 -0.0380 
1 0.1326 -0.0106 0.0645 0.0530 -0.1230 -0.1584 -0.0918 -0.0814 -0.1107 -0.1981 -0.2195 0.0894 0.0895 0.1479 0.1233 0.0389 -0.1607 -0.0644 -0.0215 0.0352 
1 0.1787 0.0768 0.1487 0.1243 -0.1649 -0.1858 -0.1175 -0.1263 -0.1356 -0.2373 -0.1674 -0.0016 0.0501 0.2249 0.1340 0.0601 -0.0964 -0.0343 -0.0397 -0.0112 
1 0.1993 0.1500 0.2954 0.1548 -0.1116 -0.0556 -0.0662 -0.0548 -0.1067 -0.1029 -0.1289 0.1322 0.1606 0.2290 0.2022 0.1274 -0.1573 -0.1249 -0.1303 -0.0946 
1 0.2150 0.2169 0.2998 0.1987 -0.0817 -0.0537 -0.1926 -0.1047 -0.0972 -0.1575 -0.0837 0.1660 0.1800 0.2376 0.2029 0.1308 -0.1845 -0.1767 -0.0362 0.0329 
1 0.2425 0.1669 0.2793 0.2328 -0.0164 -0.0899 -0.1341 -0.0685 -0.0931 -0.1444 -0.0775 0.1930 0.2039 0.3773 0.2281 0.1868 -0.1272 -0.0649 -0.0559 0.0173 
1 0.2576 0.2145 0.3112 0.2481 -0.0355 -0.0228 -0.1787 -0.1892 -0.1916 -0.2053 -0.1289 0.3368 0.2740 0.3082 0.1807 0.1092 -0.1726 -0.2409 -0.1494 -0.0641 
1 0.2612 0.2065 0.3032 0.2691 0.0051 0.0264 -0.0753 -0.0162 -0.1172 -0.1366 -0.0013 0.4183 0.3359 0.3129 0.1652 0.0590 -0.1481 -0.1718 -0.1547 -0.0734 
1 0.2870 0.2210 0.3154 0.2904 0.0004 0.0234 -0.0534 -0.0526 -0.0873 -0.0747 0.0045 0.3232 0.2839 0.3692 0.2176 0.0835 -0.1041 -0.1324 -0.0651 0.0371 
1 0.2718 0.2680 0.3401 0.3089 0.0037 0.0760 0.0298 -0.0657 -0.1111 -0.1078 0.0262 0.2889 0.3016 0.3330 0.1721 0.1326 -0.1905 -0.1746 -0.1207 -0.0701 
1 0.2719 0.2681 0.3575 0.3495 0.0506 0.0728 0.0062 0.0293 -0.0057 -0.0148 0.0885 0.2785 0.3027 0.3673 0.2347 0.1789 -0.0797 -0.1909 -0.0093 0.0000 
1 0.2694 0.2779 0.3844 0.3723 0.0318 0.1067 0.0799 -0.0153 0.0184 -0.0208 0.0576 0.3568 0.3414 0.4190 0.2422 0.0859 -0.1284 -0.1819 0.0090 0.0150 
1 0.2719 0.3020 0.4048 0.4124 0.0820 0.1324 0.0784 0.0548 0.0449 -0.0142 0.0990 0.3771 0.3602 0.4239 0.0815 0.0437 -0.1820 -0.2658 0.0000 -0.0356 
1 0.2839 0.3156 0.4424 0.4370 0.1411 0.1635 0.1203 0.0989 0.0879 0.1281 0.2733 0.3819 0.2607 0.3497 0.1597 0.0819 -0.2150 -0.2472 -0.0703 -0.0022 
1 0.3017 0.3190 0.4541 0.4448 0.2163 0.1889 0.1895 0.1763 0.1460 0.1414 0.3952 0.4967 0.3642 0.3511 0.2802 0.2065 -0.0823 -0.2304 -0.0435 -0.0702 
1 0.3085 0.3283 0.4597 0.4296 0.2519 0.2241 0.2425 0.1606 0.1697 0.2050 0.4288 0.4954 0.3920 0.4681 0.2115 0.1643 -0.0344 -0.1943 0.0046 0.0555 
1 0.3122 0.3229 0.4140 0.3626 0.2774 0.1988 0.2215 0.1636 0.1709 0.2080 0.4449 0.4835 0.4543 0.4573 0.2389 0.0841 -0.0743 -0.1733 0.0297 -0.0079 
1 0.3168 0.3359 0.4085 0.3572 0.3093 0.2364 0.2804 0.2342 0.1897 0.2398 0.4869 0.5209 0.3611 0.3342 0.2114 0.0950 -0.0056 -0.1213 0.0429 0.0529 
1 0.3437 0.3214 0.3455 0.3423 0.3433 0.2668 0.2515 0.2045 0.2767 0.2570 0.4780 0.4605 0.3509 0.3476 0.2110 0.1129 0.0210 -0.1541 0.0877 0.0751 
1 0.3512 0.3288 0.4043 0.4061 0.3562 0.2743 0.2496 0.2508 0.2697 0.3024 0.5013 0.5017 0.4286 0.4665 0.2532 0.0514 -0.0787 -0.1292 0.0687 -0.0166 
1 0.3535 0.3222 0.3333 0.3837 0.3867 0.2430 0.3407 0.2871 0.2375 0.2803 0.4500 0.4338 0.4635 0.3567 0.2140 0.0905 -0.0639 -0.1207 0.1083 0.0229 
1 0.3622 0.3381 0.3723 0.3919 0.4120 0.2778 0.2880 0.3159 0.2313 0.3133 0.5077 0.4497 0.3628 0.3113 0.1412 -0.0811 -0.0764 -0.2589 -0.0610 -0.0527 
1 0.3694 0.3253 0.3439 0.3954 0.3965 0.2546 0.3260 0.3096 0.2627 0.2763 0.5211 0.4512 0.3689 0.2926 0.1425 0.0026 -0.1177 -0.2375 -0.1082 -0.0546 
1 0.3611 0.3139 0.2932 0.3978 0.3936 0.2957 0.3102 0.2475 0.2144 0.3267 0.5131 0.4347 0.3644 0.2856 0.2218 0.0590 -0.1509 -0.2456 -0.1707 -0.1250 
1 0.3762 0.3285 0.3060 0.3784 0.3759 0.3000 0.3408 0.2773 0.2504 0.3255 0.4987 0.4405 0.3351 0.3191 0.1144 0.0225 -0.0961 -0.2144 -0.1679 -0.1034 
1 0.3703 0.3224 0.2744 0.3390 0.3519 0.3436 0.3496 0.2714 0.2526 0.3431 0.5833 0.4828 0.3329 0.2728 0.1058 -0.0073 -0.1351 -0.2761 -0.2189 -0.1309 
1 0.3629 0.3354 0.2975 0.3632 0.3558 0.3067 0.2648 0.2601 0.2837 0.3316 0.5757 0.4685 0.3096 0.2448 0.0787 -0.0853 -0.1726 -0.2905 -0.1719 -0.2017 
1 0.3665 0.3396 0.2447 0.3087 0.3961 0.3260 0.2708 0.2602 0.2465 0.3266 0.5888 0.4655 0.3151 0.1930 0.0933 -0.0347 -0.2508 -0.1076 -0.0095 -0.1647 
1 0.3550 0.3232 0.2356 0.2413 0.4025 0.3614 0.2811 0.1831 0.2041 0.3711 0.5296 0.3990 0.3545 0.2273 0.1065 -0.0883 -0.2568 -0.2123 -0.1015 -0.2200 
1 0.3517 0.3327 0.2431 0.2461 0.4544 0.3920 0.3057 0.2068 0.2249 0.3988 0.6124 0.4521 0.3828 0.2219 0.0868 -0.0669 -0.2454 -0.2252 -0.0505 -0.2069 
1 0.3295 0.3220 0.2576 0.3396 0.5348 0.4319 0.3388 0.2378 0.2199 0.3705 0.5651 0.4395 0.3666 0.1664 0.0706 -0.0781 -0.2794 -0.2491 -0.0211 -0.1328 
1 0.3168 0.3239 0.2808 0.3531 0.5423 0.4534 0.3649 0.2852 0.2581 0.4768 0.6562 0.4419 0.3355 0.1785 0.0440 -0.0806 -0.1932 -0.2277 -0.1240 -0.1714 
1 0.3042 0.3235 0.3172 0.3573 0.5591 0.4888 0.4123 0.3067 0.3183 0.4525 0.6005 0.4093 0.3202 0.1965 0.1278 0.0070 -0.1917 -0.2386 -0.0320 -0.0847 
1 0.2794 0.3313 0.3425 0.3983 0.5896 0.4968 0.4454 0.3719 0.3983 0.4871 0.5594 0.3768 0.3021 0.2320 0.1310 -0.0023 -0.2175 -0.1463 -0.1356 -0.1126 
1 0.2618 0.3111 0.3446 0.4072 0.5870 0.5002 0.4670 0.3909 0.4249 0.6062 0.6461 0.4278 0.4043 0.2638 0.1846 0.0660 -0.1341 -0.1038 0.0365 -0.0647 
1 0.2808 0.2733 0.3137 0.3916 0.5353 0.5000 0.3894 0.3593 0.4426 0.5182 0.5086 0.4153 0.3702 0.2372 0.1605 0.0459 -0.1440 -0.0915 0.0237 -0.0309 
1 0.2995 0.2925 0.3241 0.3543 0.5081 0.4843 0.4696 0.4015 0.3569 0.4984 0.4938 0.3069 0.2852 0.1331 0.0241 -0.0215 -0.1802 -0.1247 0.0268 -0.0104 
1 0.3052 0.2090 0.2669 0.3970 0.4604 0.4687 0.4277 0.3563 0.3844 0.3949 0.4341 0.3508 0.2893 0.2569 0.1594 0.0426 -0.1668 -0.1222 -0.0271 -0.1212 
1 0.3124 0.1889 0.1935 0.3192 0.4298 0.4835 0.3452 0.2816 0.3563 0.4125 0.4152 0.3229 0.2548 0.1192 0.0628 -0.0259 -0.2116 -0.1401 -0.0821 -0.1537 
1 0.3184 0.2520 0.1498 0.2928 0.4727 0.4777 0.3076 0.2412 0.2569 0.4335 0.4875 0.2400 0.2462 0.0808 -0.0054 -0.0563 -0.2682 -0.2583 -0.1326 -0.1096 
1 0.2883 0.2728 0.2139 0.3181 0.5549 0.5059 0.3649 0.2264 0.3100 0.4657 0.4758 0.2488 0.3283 0.1698 0.0141 -0.0287 -0.2261 -0.1037 -0.0391 -0.1463 
1 0.2517 0.2925 0.2857 0.3422 0.5764 0.5061 0.4257 0.3136 0.3976 0.5693 0.5526 0.3025 0.2211 0.1878 0.1044 0.0499 -0.1479 -0.0730 -0.0440 -0.0627 
1 0.2270 0.2991 0.3236 0.4089 0.5713 0.4874 0.4497 0.3858 0.4320 0.5578 0.5197 0.3315 0.3424 0.2240 0.1109 0.0643 -0.1240 -0.1235 -0.0374 0.0218 
1 0.2319 0.2878 0.3273 0.3940 0.5315 0.4658 0.4212 0.3835 0.4362 0.5890 0.5424 0.4101 0.4215 0.2206 0.1530 0.1108 -0.1091 -0.0940 -0.0343 -0.0164 
1 0.2502 0.2556 0.2825 0.3820 0.4984 0.4822 0.3997 0.3544 0.4164 0.5009 0.4432 0.2476 0.2817 0.1695 0.0209 -0.1103 -0.2228 -0.1239 -0.1279 0.0186 
1 0.2755 0.1482 0.2216 0.3249 0.4148 0.4258 0.3343 0.2672 0.2618 0.4254 0.3734 0.1650 0.2566 0.0339 -0.0791 -0.1524 -0.3153 -0.2223 -0.0866 -0.0053 
1 0.2808 0.2010 0.1504 0.2491 0.4343 0.3598 0.2340 0.1412 0.2365 0.4278 0.3420 0.1584 0.1299 0.0134 -0.1897 -0.2084 -0.2978 -0.1823 -0.0759 0.0399 
1 0.2451 0.2675 0.2275 0.3404 0.5141 0.4045 0.3360 0.2739 0.2516 0.4511 0.3163 0.0960 0.1801 0.0346 -0.1306 -0.1615 -0.3334 -0.2774 -0.1612 -0.0495 
1 0.1717 0.2964 0.2875 0.3942 0.5267 0.4540 0.3659 0.3030 0.2932 0.4164 0.2741 0.0567 0.2125 0.1040 -0.1412 -0.1313 -0.2898 -0.1551 0.0043 0.0345 
1 0.2165 0.2547 0.2805 0.3680 0.4740 0.4327 0.3227 0.2992 0.3037 0.4187 0.3398 0.1901 0.3311 0.1897 -0.1071 -0.1245 -0.2247 -0.2674 -0.0097 -0.0081 
1 0.1915 0.1262 0.1988 0.3012 0.4035 0.3865 0.2365 0.2295 0.2941 0.3622 0.2487 0.0057 0.0181 0.0133 -0.2206 -0.2674 -0.3580 -0.2072 0.0603 0.1014 
1 0.2270 0.1507 0.1123 0.2240 0.3483 0.3167 0.2185 0.1478 0.1952 0.2616 0.1303 -0.0358 0.0807 0.0017 -0.2088 -0.2036 -0.3519 -0.0972 0.0399 -0.0274 
1 0.2149 0.2009 0.1200 0.2952 0.3817 0.3321 0.1636 0.1400 0.1913 0.2822 0.0868 -0.0178 0.0923 -0.0515 -0.2351 -0.2485 -0.4355 -0.3140 -0.0957 -0.0661 
1 0.1602 0.2262 0.2100 0.2965 0.3793 0.2849 0.2287 0.2101 0.2580 0.3211 0.1180 -0.0032 0.0529 -0.1091 -0.2972 -0.2490 -0.3860 -0.3169 -0.1263 -0.0782 
1 0.2147 0.1275 0.1147 0.1675 0.2392 0.1331 0.0613 -0.0020 0.0429 0.1245 -0.0056 -0.1807 -0.2329 -0.1731 -0.3112 -0.2406 -0.4623 -0.3075 -0.1560 -0.1236 
1 0.1629 -0.0128 0.0037 0.0421 0.0825 0.0841 -0.0248 -0.0179 0.0170 0.1450 -0.1076 -0.2471 -0.1910 -0.1905 -0.3480 -0.2622 -0.2854 -0.2231 -0.1375 -0.1143 
1 0.0873 0.1063 0.0099 -0.0244 0.0661 -0.0470 -0.0577 -0.0813 0.0435 0.1179 -0.0513 -0.2300 -0.1553 -0.1810 -0.2885 -0.1733 -0.1379 -0.1302 -0.1661 -0.1916 
1 0.0557 -0.0546 -0.0009 -0.0557 -0.0221 -0.0347 -0.1140 -0.1528 -0.1367 -0.0272 -0.1786 -0.2724 -0.1598 -0.2280 -0.2773 -0.1419 -0.1201 -0.0821 -0.1307 -0.1387 
1 -0.0826 -0.1131 -0.1029 -0.2309 -0.1468 -0.0567 -0.1671 -0.0710 0.0507 0.0431 -0.1104 -0.1658 -0.2267 -0.1994 -0.0814 0.0131 0.0580 0.0205 -0.0157 0.0330 
1 -0.2383 -0.2825 -0.3462 -0.3305 -0.1965 -0.0930 0.0700 0.0776 0.0116 -0.0492 -0.0900 -0.2531 -0.3064 -0.1901 -0.1225 0.0334 0.1247 0.1497 0.1833 0.1011 
1 -0.3077 -0.2860 -0.2791 -0.3240 -0.1015 -0.0213 -0.0788 0.0003 0.0110 -0.0718 -0.1560 -0.2221 -0.2938 -0.1435 -0.0660 0.0349 0.0049 0.3258 0.3452 0.2588 
1 -0.4650 -0.3563 -0.3264 -0.2770 -0.4007 -0.2240 -0.1342 -0.0506 -0.1193 -0.0639 -0.1602 -0.2289 -0.3332 -0.1760 -0.0855 0.0126 0.1307 0.3098 0.3533 0.3135 
1 -0.2970 -0.2739 -0.2546 -0.2781 -0.2638 -0.2073 -0.1334 -0.1095 -0.1667 -0.1351 -0.1567 -0.2512 -0.2920 -0.1250 -0.1083 -0.0337 0.2178 0.3086 0.3138 0.2781 
1 -0.3915 -0.3486 -0.4298 -0.3177 -0.2985 -0.2971 -0.2065 -0.1490 -0.1195 -0.0032 -0.1404 -0.2598 -0.2168 -0.1530 -0.1553 -0.0395 0.2872 0.3086 0.2458 0.3523 
1 -0.3706 -0.4054 -0.4949 -0.3056 -0.2651 -0.2146 -0.0686 -0.1543 -0.0895 -0.1682 -0.1548 -0.2098 -0.1383 -0.1404 -0.1844 -0.0191 0.2811 0.3721 0.2168 0.2593 
1 -0.6213 -0.3182 -0.3041 -0.4321 -0.2435 -0.1793 -0.2052 -0.1015 -0.0663 -0.1190 -0.1703 -0.2686 -0.1456 -0.2003 -0.1064 0.0964 0.2974 0.3686 0.3301 0.2967 
1 -0.3317 -0.3497 -0.2528 -0.1750 -0.1860 -0.1357 -0.1182 -0.0416 0.0019 -0.0278 -0.0770 -0.1935 -0.1929 -0.1976 -0.1126 -0.0166 0.2048 0.3341 0.2786 0.2750 
1 -0.3523 -0.4238 -0.3089 -0.2874 -0.1854 -0.1351 -0.0417 0.0295 -0.0273 -0.0729 -0.1836 -0.2233 -0.1452 -0.1232 -0.0707 0.0675 0.2859 0.5126 0.4467 0.3272 
1 -0.4549 -0.4143 -0.3353 -0.1735 -0.2468 -0.2652 -0.1304 -0.0579 -0.0773 -0.1294 -0.1395 -0.2211 -0.1612 -0.2134 -0.0867 0.0475 0.3182 0.3785 0.3737 0.2452 
1 -0.4692 -0.3521 -0.2440 -0.3401 -0.2702 -0.1785 -0.1539 -0.0580 -0.0544 -0.1548 -0.1950 -0.1718 -0.2242 -0.2144 -0.0979 -0.0191 0.3469 0.4019 0.2642 0.2779 
1 -0.3779 -0.3460 -0.2670 -0.2130 -0.1933 -0.1996 -0.0958 -0.0800 -0.0065 -0.0660 -0.2352 -0.2071 -0.2882 -0.2111 -0.1365 0.0834 0.2262 0.2858 0.2608 0.2543 
1 -0.4309 -0.4423 -0.4037 -0.3096 -0.2047 -0.1167 -0.1649 -0.1039 -0.1169 -0.0797 -0.0844 -0.1731 -0.2311 -0.1505 -0.1152 0.0389 0.2801 0.4346 0.3219 0.3262 
1 -0.5051 -0.4418 -0.2889 -0.3221 -0.2627 -0.2614 -0.0242 -0.0302 0.0208 -0.0906 -0.2214 -0.2523 -0.2274 -0.1281 0.0089 0.1041 0.3262 0.4643 0.3214 0.2387 
1 -0.4213 -0.3065 -0.3389 -0.3057 -0.2505 -0.1312 -0.0921 -0.0683 -0.1210 -0.1063 -0.0836 -0.2565 -0.3174 -0.2011 -0.1154 0.1737 0.3320 0.4016 0.3531 0.2528 
1 -0.3362 -0.1394 -0.1266 -0.1652 -0.1250 -0.1307 -0.0625 0.0063 0.0059 -0.0341 -0.1278 -0.1519 -0.2466 -0.1518 -0.0514 0.1070 0.4588 0.4861 0.3588 0.3029 
1 -0.3290 -0.2093 -0.3234 -0.2026 -0.1818 -0.2241 -0.1540 -0.0530 -0.0127 -0.0054 -0.0898 -0.2615 -0.3053 -0.1111 -0.0796 0.0671 0.4706 0.4784 0.4176 0.3316 
1 -0.4132 -0.4007 -0.3237 -0.3462 -0.2386 -0.1419 -0.0321 -0.0895 -0.0303 -0.0969 -0.2824 -0.2334 -0.1828 -0.1135 0.0603 0.1667 0.5958 0.5334 0.3656 0.2861 
1 -0.3351 -0.2733 -0.1697 -0.2496 -0.2044 -0.1902 -0.1843 -0.0438 -0.0845 -0.1082 -0.1779 -0.2077 -0.1263 -0.0890 0.0230 0.1385 0.4125 0.5728 0.5322 0.2752 
1 -0.5852 -0.3125 -0.2728 -0.2459 -0.1956 -0.1218 -0.1509 -0.1068 -0.0587 -0.1835 -0.1320 -0.1713 -0.1456 -0.0620 0.0302 0.0727 0.3845 0.4680 0.3759 0.3330 
1 -0.2873 -0.2638 -0.2459 -0.2781 -0.1310 -0.0821 -0.0366 0.0032 -0.0146 0.0014 -0.0966 -0.2477 -0.0850 -0.1472 -0.0113 0.0951 0.4667 0.5353 0.3343 0.3188 
1 -0.3674 -0.3200 -0.2275 -0.2719 -0.2449 -0.1723 -0.0283 -0.0145 -0.0550 -0.0718 -0.0673 -0.1287 -0.1801 -0.1748 -0.0060 0.0897 0.5741 0.6374 0.3938 0.2876 
1 -0.1864 -0.2138 -0.2330 -0.2705 -0.2332 -0.1579 -0.1606 -0.0901 -0.0384 -0.0755 -0.1347 -0.1724 -0.0713 -0.0871 0.0124 0.1606 0.5727 0.5868 0.3557 0.2834 
1 -0.4567 -0.3411 -0.3379 -0.1455 -0.1614 -0.0443 -0.0650 -0.1561 -0.0678 -0.0695 -0.1044 -0.1848 -0.0707 -0.1203 -0.0545 0.1297 0.5749 0.6167 0.3375 0.2816 
1 -0.4258 -0.2658 -0.2331 -0.2305 -0.2241 -0.1127 -0.0746 -0.0705 0.0035 -0.0221 -0.0577 -0.0945 -0.0497 -0.0748 0.0227 0.1273 0.5139 0.5365 0.3141 0.2879 
1 -0.3449 -0.3090 -0.3687 -0.3182 -0.2365 -0.2265 -0.1318 -0.0371 -0.1088 -0.1030 -0.1164 -0.2408 -0.1678 -0.1737 -0.0669 0.0095 0.4537 0.4799 0.3122 0.3068 
1 -0.2950 -0.1919 -0.2112 -0.2070 -0.2152 -0.1901 -0.1962 -0.0579 -0.1077 -0.0365 -0.0948 -0.1760 -0.2067 -0.1882 -0.0053 0.0517 0.3978 0.4158 0.3271 0.2295 
1 -0.3304 -0.3121 -0.2438 -0.2346 -0.1250 -0.1706 -0.0845 -0.0584 -0.0400 -0.0655 -0.1333 -0.1523 -0.1245 -0.0450 -0.0691 0.1175 0.5832 0.5719 0.2687 0.3727 
1 -0.1319 -0.0844 -0.0088 -0.0738 -0.0109 -0.0181 0.0661 0.0638 0.0767 0.0027 -0.0540 -0.1078 -0.1732 -0.0904 -0.0251 0.1073 0.6113 0.6052 0.3873 0.2790 
1 -0.4041 -0.4362 -0.3393 -0.3162 -0.2444 -0.1453 -0.0548 -0.0253 -0.0620 -0.0687 -0.1448 -0.1329 -0.1601 -0.1256 -0.0753 0.1404 0.5781 0.5233 0.3027 0.2811 
1 -0.2489 -0.2491 -0.2161 -0.2368 -0.0822 -0.0684 -0.0044 -0.0581 -0.0331 -0.0479 -0.0242 -0.1114 -0.0420 -0.0794 0.0872 0.1774 0.5739 0.5075 0.2871 0.3033 
1 -0.3792 -0.1867 -0.2328 -0.1521 -0.2119 -0.2711 -0.1273 -0.0394 0.0433 -0.0467 -0.1048 -0.1051 -0.1256 -0.0819 0.0925 0.1633 0.4045 0.3864 0.2732 0.2722 
1 -0.2859 -0.3601 -0.1595 -0.2436 -0.1948 -0.0327 0.0208 0.0066 -0.0666 -0.0424 -0.1608 -0.1651 -0.2289 -0.1543 0.1189 0.2313 0.4378 0.4715 0.3086 0.2658 
1 -0.3268 -0.2680 -0.2983 -0.3622 -0.3261 -0.1550 0.0181 -0.0497 -0.1157 -0.0655 -0.0741 -0.2401 -0.2083 -0.1599 -0.0112 0.0581 0.4349 0.4457 0.1952 0.2452 
1 -0.2263 -0.2090 -0.1857 -0.0965 -0.1851 -0.0956 -0.1163 -0.0897 -0.0557 -0.0899 -0.1535 -0.2402 -0.2093 -0.1045 -0.0265 0.0673 0.4515 0.3842 0.1629 0.1258 
1 -0.3273 -0.2375 -0.2420 -0.2813 -0.2625 -0.1639 -0.0064 -0.0655 0.0239 0.0549 -0.0352 -0.1866 -0.1453 -0.0569 0.0620 0.0931 0.4714 0.3161 0.1254 0.1681 
1 -0.3508 -0.2157 -0.2651 -0.2033 -0.2020 -0.1068 -0.0277 -0.0205 -0.0459 0.0381 -0.0680 -0.1914 -0.0578 -0.0993 0.0950 0.1396 0.4355 0.2791 0.1945 0.2368 
1 -0.3039 -0.0418 -0.0293 -0.1227 -0.1476 -0.0259 0.0202 0.0390 0.0315 -0.1253 -0.1168 -0.1553 -0.2211 -0.0451 0.1602 0.2028 0.3799 0.2306 0.0718 0.1177 
1 -0.3512 -0.1934 -0.2073 -0.3006 -0.2441 -0.1674 -0.1573 -0.0972 0.0411 -0.0647 -0.1524 -0.2027 -0.3446 -0.1304 -0.0000 0.0479 0.2056 0.0355 -0.0688 -0.1135 
1 -0.6108 -0.3969 -0.2967 -0.3277 -0.2148 -0.0635 -0.2014 -0.0777 -0.1311 -0.2446 -0.3069 -0.4058 -0.4234 -0.2455 -0.1265 -0.0042 0.0878 -0.0751 -0.2312 -0.2008 
1 -0.6401 -0.2665 -0.2469 -0.2380 -0.3164 -0.1752 -0.0791 -0.1363 -0.0011 -0.1855 -0.3413 -0.3700 -0.4959 -0.2655 -0.0592 -0.0993 -0.0860 -0.1967 -0.2711 -0.1931 
1 -0.2153 -0.3192 -0.2816 -0.3223 -0.3306 -0.2760 -0.1987 -0.2517 -0.0511 -0.2973 -0.2703 -0.3916 -0.4487 -0.2880 -0.1883 -0.2262 -0.1632 -0.3751 -0.5117 -0.4110 
1 -0.3628 -0.4644 -0.3198 -0.4262 -0.2957 -0.2653 -0.3189 -0.1201 -0.1669 -0.1420 -0.2300 -0.2357 -0.4348 -0.3290 -0.2677 -0.3611 -0.3510 -0.5060 -0.5300 -0.4505 
1 -0.2915 -0.4717 -0.3616 -0.2562 -0.4074 -0.3028 -0.2536 -0.1764 -0.1061 -0.3442 -0.3378 -0.3710 -0.5152 -0.2430 -0.0738 -0.2423 -0.3032 -0.4350 -0.5511 -0.4530 
1 -0.2310 -0.3563 -0.4380 -0.5144 -0.3604 -0.2423 -0.1699 -0.0426 -0.1347 -0.3666 -0.3574 -0.4024 -0.5036 -0.2602 -0.1762 -0.4123 -0.3511 -0.5119 -0.5905 -0.3744 
