88 20
1 -0.0967 -0.2516 -0.5097 -0.5247 -0.5026 -0.4123 -0.4593 -0.4910 -0.5098 -0.4004 -0.3796 -0.3970 -0.5448 -0.5246 -0.6479 -0.6006 -0.6927 -0.6460 -0.5620 -0.4987 
1 0.1338 -0.0014 -0.0907 -0.1972 -0.3658 -0.4290 -0.3334 -0.3049 -0.4788 -0.3766 -0.3428 -0.3301 -0.3765 -0.3568 -0.4046 -0.4024 -0.6402 -0.6675 -0.5984 -0.5353 
1 0.1667 0.2130 0.0662 -0.1480 -0.2812 -0.4380 -0.3245 -0.2660 -0.3279 -0.3723 -0.2968 -0.0719 -0.1135 -0.1928 -0.1534 -0.1679 -0.4696 -0.5327 -0.4721 -0.4048 
1 0.1900 0.2624 0.1264 -0.1259 -0.2325 -0.2604 -0.2265 -0.1928 -0.2028 -0.3113 -0.3105 -0.0768 -0.0743 -0.1680 -0.1306 -0.0862 -0.3056 -0.4269 -0.3633 -0.3293 
1 0.2030 0.2483 0.1510 -0.0876 -0.1744 -0.2391 -0.2300 -0.1851 -0.1886 -0.2645 -0.2613 -0.0245 -0.0804 -0.2109 -0.1779 -0.1140 -0.2987 -0.4124 -0.3554 -0.3185 
1 0.2155 0.2093 0.1685 -0.1528 -0.2120 -0.2260 -0.1427 -0.1400 -0.1751 -0.2356 -0.2394 -0.0389 -0.0995 -0.1351 -0.0730 -0.0844 -0.2592 -0.3527 -0.2805 -0.2408 
1 0.2320 0.1769 0.2001 -0.1074 -0.2033 -0.2088 -0.1672 -0.1287 -0.1851 -0.2875 -0.2555 0.0299 0.0146 -0.0604 -0.0069 -0.0557 -0.1351 -0.2263 -0.2966 -0.2227 
1 0.2277 0.1607 0.2173 -0.3423 -0.1925 -0.1913 -0.1636 -0.1179 -0.1208 -0.2342 -0.2232 -0.0434 -0.0478 -0.0721 -0.0845 0.0411 0.0752 -0.1130 -0.2101 -0.2242 
1 0.2069 0.1087 0.1673 -0.1181 -0.1270 -0.1782 -0.1653 -0.1528 -0.1563 -0.1959 -0.2343 -0.1299 -0.1673 0.0395 0.0862 0.0402 0.0235 -0.1476 -0.1756 -0.2197 
1 0.1859 0.0850 0.1488 0.0432 -0.2103 -0.1381 -0.1660 -0.0977 -0.1058 -0.1599 -0.0930 -0.0037 -0.0430 0.0394 0.1215 0.0598 0.1222 -0.0466 -0.2123 -0.2077 
1 0.2812 0.1507 0.2112 -0.0140 -0.2422 -0.2263 -0.1616 -0.1084 -0.1925 -0.2249 -0.1670 0.0460 0.0054 0.1829 0.2003 0.1383 0.1312 0.0218 -0.0921 -0.1391 
1 0.3051 0.1872 0.2548 0.1027 0.0075 -0.1436 -0.1677 -0.1743 -0.2279 -0.2181 -0.2610 0.0434 0.1319 0.2685 0.1793 0.0099 0.1496 0.0829 0.0202 -0.0705 
1 0.3144 0.2847 0.3967 0.1565 -0.0681 -0.0465 -0.0892 -0.1530 -0.1481 -0.1297 -0.0696 0.2324 0.2269 0.2419 0.1176 0.0593 0.0216 -0.0965 -0.1212 -0.0573 
1 0.3476 0.3901 0.4612 0.1989 0.0795 0.1085 -0.0216 -0.0304 -0.1098 -0.1120 0.0172 0.3376 0.3302 0.3334 0.1654 0.0832 -0.0554 -0.1328 0.0303 0.0187 
1 0.3683 0.4844 0.4867 0.2971 0.1669 0.1241 0.0668 -0.0342 -0.0678 -0.0932 0.0623 0.5154 0.4239 0.3986 0.1070 0.0250 -0.1954 -0.0546 0.1446 0.1406 
1 0.3775 0.4798 0.4915 0.4637 0.1987 0.1001 -0.0121 -0.0040 0.0058 -0.0127 0.1519 0.5549 0.3797 0.3221 0.1212 0.0235 -0.2132 -0.2773 -0.0702 -0.0150 
1 0.4053 0.4429 0.5126 0.5724 0.2807 0.1297 -0.0092 0.0342 0.0195 0.0149 0.2504 0.5155 0.3881 0.3661 0.1403 -0.0087 -0.1302 -0.1561 0.0484 0.0899 
1 0.3632 0.4490 0.5127 0.6268 0.4053 0.2506 0.1144 0.0652 0.1331 0.0931 0.4093 0.5483 0.4272 0.3456 0.1453 0.0214 -0.1821 -0.2586 -0.0967 0.0530 
1 0.3610 0.4861 0.4986 0.6418 0.4771 0.2811 0.1470 0.0366 0.1098 0.1318 0.4048 0.5072 0.4167 0.3387 0.1580 -0.0185 -0.2432 -0.1725 -0.0059 -0.0202 
1 0.3232 0.5028 0.5139 0.6789 0.5434 0.3558 0.2926 0.1922 0.2096 0.2512 0.5282 0.5205 0.3926 0.3311 0.2254 0.0193 -0.0790 -0.1666 -0.0220 -0.0823 
1 0.3446 0.4959 0.5143 0.6986 0.5903 0.3834 0.3283 0.2340 0.2299 0.3008 0.4888 0.4339 0.3681 0.2815 0.0848 -0.1190 -0.2556 -0.1513 0.0274 -0.1399 
1 0.3962 0.4850 0.5200 0.6758 0.5862 0.4233 0.3809 0.2962 0.2443 0.2966 0.5035 0.4013 0.3377 0.2345 0.0806 -0.1839 -0.2614 -0.2549 -0.0049 -0.0289 
1 0.4024 0.4851 0.5090 0.6260 0.5728 0.4731 0.4079 0.2928 0.2729 0.3315 0.4582 0.4205 0.4003 0.1760 0.0853 -0.1721 -0.4057 -0.2052 -0.0331 -0.0584 
1 0.4290 0.4799 0.4962 0.5675 0.5539 0.4672 0.3726 0.3113 0.2616 0.2478 0.4163 0.4485 0.4421 0.2832 0.0473 -0.1257 -0.3576 -0.1594 0.1321 -0.0292 
1 0.4332 0.4549 0.4728 0.5434 0.5692 0.5229 0.4425 0.3539 0.3156 0.3980 0.4071 0.2483 0.2699 0.2163 -0.0820 -0.2635 -0.3319 -0.2350 -0.0334 -0.0725 
1 0.4465 0.4057 0.4295 0.4796 0.4868 0.5547 0.4372 0.3286 0.3492 0.3922 0.3819 0.3046 0.3448 0.2077 0.0961 -0.1992 -0.2819 -0.0819 0.1210 0.0311 
1 0.4351 0.3779 0.3445 0.4226 0.4378 0.4621 0.3236 0.2357 0.2518 0.4167 0.4679 0.1829 0.3023 0.1447 0.0016 -0.2083 -0.3306 -0.0863 0.0889 0.0389 
1 0.3869 0.3465 0.2396 0.3548 0.4756 0.4721 0.3412 0.1409 0.1665 0.3742 0.3998 0.1841 0.3058 0.0903 -0.0368 -0.2190 -0.3374 -0.1601 0.0086 -0.0020 
1 0.3381 0.3751 0.2457 0.3645 0.5360 0.5038 0.3897 0.2068 0.2170 0.3766 0.3968 0.3075 0.2995 0.1817 0.0424 -0.2277 -0.2941 -0.0523 0.1090 0.0558 
1 0.2968 0.3998 0.3379 0.4135 0.5608 0.5347 0.4075 0.2891 0.1796 0.2492 0.2526 0.3219 0.4010 0.1759 0.0429 -0.1962 -0.2869 -0.0973 0.0100 -0.0544 
1 0.3454 0.4144 0.3981 0.4553 0.5752 0.5682 0.3847 0.2657 0.2220 0.3234 0.3082 0.1830 0.3537 0.1930 0.0969 -0.1129 -0.4300 -0.2224 -0.0770 -0.1526 
1 0.3941 0.4102 0.4049 0.4526 0.5616 0.5245 0.3947 0.3115 0.2288 0.2322 0.2622 0.2413 0.3960 0.2388 -0.0273 -0.2479 -0.3280 -0.2188 -0.0907 -0.1028 
1 0.4219 0.3567 0.3859 0.4114 0.5049 0.5329 0.4126 0.3250 0.2995 0.4770 0.3780 0.2143 0.3174 0.1980 0.0261 -0.1645 -0.2644 -0.0561 0.0833 0.0201 
1 0.4081 0.3035 0.3024 0.3387 0.4286 0.3920 0.2258 0.2748 0.3179 0.3327 0.2710 0.0311 0.1624 0.0481 -0.1041 -0.2833 -0.3565 -0.1866 -0.0185 -0.0553 
1 0.3533 0.3015 0.2063 0.2231 0.4811 0.4398 0.3247 0.2495 0.2954 0.5163 0.3932 0.1868 0.2678 0.1513 -0.0657 -0.2385 -0.3377 -0.1140 0.0763 0.0209 
1 0.2722 0.3539 0.2601 0.3329 0.5269 0.4879 0.3633 0.3098 0.3753 0.5004 0.3385 0.1986 0.1874 0.0734 -0.0908 -0.2035 -0.2588 -0.0509 0.1122 0.0388 
1 0.2981 0.3780 0.3572 0.4021 0.5335 0.5052 0.3187 0.3157 0.3827 0.4643 0.3237 0.2453 0.2868 0.1886 0.0201 -0.1366 -0.2513 -0.0893 0.0220 -0.0345 
1 0.3604 0.3590 0.3628 0.3973 0.5091 0.4863 0.2782 0.2657 0.3790 0.4504 0.3431 0.2310 0.2265 0.1034 -0.1114 -0.2519 -0.3545 -0.1317 -0.0745 -0.1130 
1 0.3752 0.2281 0.2968 0.3083 0.3980 0.3383 0.1482 0.1621 0.2435 0.4280 0.3287 0.1753 0.2531 0.0971 -0.0984 -0.2728 -0.4251 -0.2173 -0.0636 -0.0815 
1 0.3129 0.2097 0.1727 0.0389 0.2691 0.1411 0.1733 0.1411 0.1374 0.2902 0.0446 -0.0057 0.1236 -0.0246 -0.3106 -0.4193 -0.4608 -0.2200 -0.0908 -0.1610 
1 0.2376 0.2135 0.1088 0.2096 0.2971 0.2571 0.1815 0.1466 0.2793 0.3701 0.1864 0.0996 0.1830 0.0630 -0.1206 -0.2178 -0.4258 -0.1322 0.0771 -0.0022 
1 0.2757 0.1939 0.1610 0.2087 0.1550 0.1362 0.0880 0.0919 0.3405 0.3676 0.1137 0.0475 0.1118 -0.0125 -0.3063 -0.3198 -0.4439 -0.1755 -0.0460 -0.0911 
1 0.1010 0.1028 -0.1421 -0.1954 -0.1284 0.0379 0.1254 0.0542 0.0855 0.2190 0.0092 -0.1153 -0.0123 -0.1265 -0.2637 -0.2087 -0.1742 -0.2606 -0.2068 -0.2110 
1 0.0888 -0.1739 -0.1847 -0.1618 -0.1582 -0.0677 -0.0080 -0.0319 0.0624 0.1054 -0.1251 -0.1241 -0.1574 -0.2004 -0.0530 -0.0805 -0.1096 -0.1117 -0.1332 -0.1089 
1 -0.0612 -0.1772 -0.2419 -0.1242 -0.2334 -0.0897 -0.1756 0.0453 0.0703 -0.0194 -0.0197 -0.0803 -0.0479 -0.0163 0.1269 0.1061 0.1097 0.1009 0.0446 -0.0163 
1 -0.2546 -0.2389 -0.1798 -0.2663 -0.0393 0.0752 -0.0179 0.1142 0.0718 0.0290 -0.0085 -0.0139 0.0801 0.0921 0.2119 0.2378 0.3407 0.2002 0.1676 0.2075 
1 -0.2640 -0.1073 -0.1253 -0.1502 -0.1656 -0.1555 -0.0186 0.0793 0.0280 0.1476 0.0144 -0.1212 -0.0542 -0.0009 0.2171 0.2173 0.2595 0.2341 0.1763 0.1533 
1 -0.3390 -0.1795 -0.1910 -0.1736 -0.1379 -0.0917 -0.1300 -0.0216 -0.0276 0.0095 -0.0816 -0.0237 -0.0610 0.0101 0.1470 0.2791 0.2586 0.1913 0.1631 0.1988 
1 -0.2583 -0.2768 -0.2079 -0.2356 -0.1852 -0.2473 -0.1771 -0.1064 -0.0028 0.0294 -0.1138 -0.1944 -0.1572 0.0213 0.1930 0.2746 0.3549 0.2626 0.2431 0.2694 
1 -0.2216 -0.2295 -0.3510 -0.2570 -0.3300 -0.2659 -0.1466 -0.0719 -0.1823 -0.1039 -0.0334 -0.1641 -0.0486 -0.0924 0.1218 0.2642 0.2758 0.2263 0.1462 0.1114 
1 -0.1808 -0.2375 -0.2379 -0.2454 -0.2329 -0.1886 -0.1969 -0.0880 -0.0978 -0.1296 -0.0582 -0.1052 -0.1578 -0.0811 0.1130 0.2025 0.2847 0.3116 0.1437 0.1100 
1 -0.2463 -0.2159 -0.2621 -0.1799 -0.1703 -0.1810 -0.1770 -0.0426 -0.0453 -0.1758 -0.1971 -0.1481 -0.1560 -0.0267 0.0743 0.1716 0.3107 0.3045 0.2523 0.2009 
1 -0.4124 -0.3798 -0.3299 -0.3650 -0.2838 -0.2474 -0.1680 -0.1157 -0.2045 -0.1938 -0.1903 -0.1443 -0.2214 -0.1673 0.1094 0.2499 0.2387 0.2550 0.1848 0.2101 
1 -0.2931 -0.3305 -0.3405 -0.3160 -0.2858 -0.1802 -0.0351 -0.1208 -0.1729 -0.0558 -0.1349 -0.1739 -0.2381 -0.1440 -0.0255 0.1510 0.3507 0.3723 0.1501 0.1847 
1 -0.5272 -0.4331 -0.4122 -0.2372 -0.1907 -0.2661 -0.1972 -0.1261 -0.1102 -0.1011 -0.1842 -0.2076 -0.2397 -0.1466 0.0748 0.2171 0.2722 0.3491 0.2003 0.2145 
1 -0.4794 -0.3760 -0.2981 -0.1918 -0.1770 -0.1551 -0.0913 -0.0182 -0.1189 -0.1672 -0.1599 -0.1339 -0.2105 -0.1152 0.0111 0.1653 0.3769 0.4418 0.2047 0.2847 
1 -0.2404 -0.2208 -0.2095 -0.1752 -0.1587 -0.1385 -0.1465 -0.0890 -0.1138 -0.1297 -0.1802 -0.1131 -0.0927 -0.0897 0.0194 0.1868 0.3878 0.4411 0.1754 0.2418 
1 -0.3812 -0.4197 -0.4283 -0.2741 -0.2333 -0.1438 -0.1068 -0.1873 -0.1471 -0.0977 -0.1284 -0.1863 -0.1737 -0.0514 0.0299 0.1818 0.3795 0.4871 0.1973 0.3022 
1 -0.4464 -0.2641 -0.2527 -0.3122 -0.2810 -0.1871 -0.1170 -0.0197 -0.0794 -0.1630 -0.1149 -0.1097 -0.1915 -0.1096 0.0777 0.2278 0.4667 0.5070 0.2712 0.3212 
1 -0.4282 -0.4327 -0.2582 -0.1964 -0.2483 -0.1676 -0.1120 -0.1401 -0.1281 -0.1786 -0.1111 -0.1567 -0.1360 -0.0469 0.0713 0.2136 0.3924 0.4048 0.2344 0.2877 
1 -0.3717 -0.3298 -0.2877 -0.2230 -0.2266 -0.1914 -0.1691 -0.1959 -0.1055 -0.0699 -0.0945 -0.2104 -0.2099 -0.0141 -0.0241 0.1858 0.3587 0.4314 0.1614 0.2231 
1 -0.2576 -0.1880 -0.1824 -0.1528 -0.1590 -0.1374 -0.0259 -0.0266 -0.0300 -0.0663 -0.0928 -0.1108 -0.1012 -0.0994 -0.0468 0.1962 0.2724 0.3555 0.2185 0.2872 
1 -0.5093 -0.2725 -0.3597 -0.3053 -0.3662 -0.1965 -0.0558 -0.0168 -0.0665 -0.1314 -0.1058 -0.2028 -0.1378 -0.1425 0.0779 0.2524 0.3902 0.3835 0.2416 0.3360 
1 -0.4655 -0.3660 -0.2403 -0.2919 -0.2134 -0.1990 -0.1142 -0.0608 -0.1664 -0.1463 -0.1240 -0.2091 -0.1388 -0.0824 0.0145 0.1555 0.2731 0.3396 0.2252 0.2867 
1 -0.4145 -0.4484 -0.5331 -0.4915 -0.3163 -0.2716 -0.1788 -0.0966 -0.1076 -0.1070 -0.0784 -0.1698 -0.2372 -0.1931 -0.0873 0.1415 0.2467 0.3209 0.1967 0.3104 
1 -0.4270 -0.4180 -0.5414 -0.3500 -0.2605 -0.2999 -0.1865 -0.1314 -0.1546 -0.1688 -0.1617 -0.0398 -0.0840 -0.0303 -0.0232 0.2158 0.2823 0.3144 0.2472 0.2433 
1 -0.4002 -0.4386 -0.2873 -0.2362 -0.3202 -0.2205 -0.1793 -0.1462 -0.1382 -0.1768 -0.1786 -0.1905 -0.1536 -0.0722 0.0512 0.1632 0.4335 0.4118 0.2317 0.2247 
1 -0.5042 -0.4414 -0.4698 -0.2317 -0.3119 -0.1330 -0.1200 -0.1569 -0.2004 -0.1937 -0.2453 -0.2695 -0.1158 -0.0691 0.0861 0.1630 0.5459 0.4987 0.1554 0.2412 
1 -0.3735 -0.3688 -0.3553 -0.2812 -0.2205 -0.2479 -0.0972 -0.1123 -0.2158 -0.2199 -0.1727 -0.2854 -0.2982 -0.1186 -0.0256 0.1088 0.4833 0.3667 0.2338 0.2022 
1 -0.3691 -0.2532 -0.1657 -0.1904 -0.1860 -0.1603 -0.1836 -0.1066 -0.0517 -0.0763 -0.1698 -0.1925 -0.1584 -0.1101 0.0049 0.1895 0.5519 0.4045 0.1405 0.1262 
1 -0.3165 -0.4256 -0.3858 -0.2472 -0.2687 -0.2003 -0.1862 -0.0240 -0.0569 -0.1076 -0.1836 -0.2411 -0.2084 -0.1955 -0.0015 0.1593 0.5366 0.3590 0.1987 0.1569 
1 -0.2208 -0.3374 -0.2767 -0.2609 -0.2332 -0.1842 -0.0947 -0.0858 -0.1419 -0.1679 -0.1739 -0.1874 -0.1952 -0.1165 -0.0195 0.2271 0.5696 0.3205 0.1444 0.1658 
1 -0.1646 -0.1408 -0.1122 -0.0920 -0.0648 -0.0793 -0.0198 0.0196 -0.0043 -0.0931 -0.0852 -0.1003 -0.1149 -0.0553 0.0967 0.3086 0.5859 0.2484 0.1903 0.2068 
1 -0.1884 -0.2361 -0.1878 -0.1799 -0.1807 -0.1726 -0.0960 -0.0391 -0.0507 -0.1275 -0.1300 -0.1187 -0.1914 -0.1328 0.0684 0.3433 0.5325 0.1671 0.1195 0.0693 
1 -0.4613 -0.3701 -0.2458 -0.2185 -0.2019 -0.1538 -0.2514 -0.1369 -0.1655 -0.1967 -0.2250 -0.1981 -0.1688 -0.0861 -0.0832 0.3659 0.5582 0.2205 0.1836 0.1070 
1 -0.2704 -0.2154 -0.3402 -0.1801 -0.2207 -0.1497 -0.2079 -0.0255 -0.0535 -0.2424 -0.2110 -0.1481 -0.1370 -0.1027 -0.0232 0.3586 0.5021 0.1583 0.1034 0.1207 
1 -0.3869 -0.1830 -0.1527 -0.2732 -0.1391 -0.1574 -0.1543 -0.0769 -0.1115 -0.1858 -0.1087 -0.1262 -0.1443 -0.0694 0.0154 0.2062 0.2315 0.1197 0.1462 0.1271 
1 -0.3305 -0.2161 -0.1800 -0.2136 -0.1965 -0.0762 -0.0338 -0.0469 -0.0101 -0.0931 -0.1285 -0.0909 -0.2114 -0.1585 0.1447 0.2414 0.2265 0.1044 0.0518 0.0882 
1 -0.2498 -0.1613 -0.2499 -0.2003 -0.2425 -0.1449 -0.1196 -0.0333 -0.0873 -0.1152 -0.1797 -0.1907 -0.0446 -0.0075 0.1289 0.1456 0.1064 0.0402 0.0454 0.0828 
1 -0.2162 -0.3276 -0.2305 -0.1959 -0.2513 -0.1952 -0.0102 -0.0630 -0.0949 -0.0276 -0.0522 -0.0949 -0.1624 -0.0635 -0.0371 0.0104 0.0201 0.0096 -0.0164 -0.0507 
1 -0.1642 -0.2356 -0.2557 -0.2971 -0.2026 -0.1729 -0.0246 -0.0508 0.0910 -0.0935 -0.0969 -0.2147 -0.2133 -0.1410 -0.0454 -0.0122 0.0675 -0.0448 -0.0621 -0.0653 
1 -0.1908 -0.2635 -0.2130 -0.1477 -0.2315 -0.2310 -0.1444 -0.1471 -0.0070 -0.1110 -0.1086 -0.2469 -0.1866 -0.1560 -0.1339 -0.1503 -0.1264 -0.1015 -0.1784 -0.1367 
1 -0.2725 -0.2637 -0.2180 -0.2557 -0.2536 -0.1710 -0.0246 -0.0988 0.0872 -0.1179 -0.1702 -0.2903 -0.2010 -0.1367 -0.0133 -0.0482 -0.0606 -0.1795 -0.2719 -0.2728 
1 -0.2114 -0.3237 -0.2940 -0.2067 -0.2554 -0.2405 -0.0863 -0.0797 -0.0083 -0.1012 -0.1764 -0.3409 -0.2628 -0.1547 -0.2411 -0.2095 -0.2120 -0.2906 -0.2910 -0.3191 
1 -0.1063 -0.3590 -0.3172 -0.2125 -0.1754 -0.1190 -0.0656 -0.1539 -0.0175 -0.1575 -0.1474 -0.2079 -0.3962 -0.2706 -0.1389 -0.2108 -0.2590 -0.2942 -0.3828 -0.3145 
1 -0.1623 -0.2803 -0.2765 -0.4428 -0.2268 -0.2285 -0.0707 -0.0987 -0.0581 -0.1531 -0.1554 -0.3286 -0.4352 -0.2027 -0.0982 -0.2283 -0.3100 -0.3829 -0.3359 -0.3525 
1 -0.1052 -0.2910 -0.2708 -0.2142 -0.1410 -0.2594 -0.0447 -0.0729 -0.1322 -0.2646 -0.2779 -0.3009 -0.3313 -0.3016 -0.1396 -0.2619 -0.3332 -0.4712 -0.4638 -0.3900 
1 -0.1206 -0.3520 -0.2292 -0.2394 -0.2505 -0.1658 -0.0645 -0.1451 -0.0996 -0.3104 -0.3026 -0.2137 -0.4157 -0.2223 -0.1221 -0.2735 -0.3935 -0.4470 -0.4929 -0.4080 
