59 20
1 -1.0214 -0.7297 -0.6154 -0.6436 -0.5439 -0.6176 -0.6228 -0.4912 -0.4840 -0.5041 -0.5651 -0.4361 -0.4014 -0.5658 -0.7873 -0.8320 -0.8210 -0.7367 -0.6879 -0.5499 
1 -0.7136 -0.7805 -0.5969 -0.6886 -0.7012 -0.7277 -0.6036 -0.4712 -0.4199 -0.5193 -0.4610 -0.5131 -0.5550 -0.5620 -0.7559 -0.7707 -0.7728 -0.7591 -0.6703 -0.6214 
1 -0.5959 -0.6695 -0.8314 -0.8798 -0.7371 -0.6825 -0.6016 -0.5187 -0.4422 -0.6031 -0.5933 -0.5320 -0.4987 -0.5378 -0.7166 -0.7489 -0.7600 -0.7000 -0.6901 -0.6636 
1 -0.2672 -0.4075 -0.7232 -0.7484 -0.6464 -0.6847 -0.4741 -0.4489 -0.5141 -0.5982 -0.4981 -0.4599 -0.4521 -0.5591 -0.6710 -0.7522 -0.7546 -0.7513 -0.6805 -0.6028 
1 0.1205 0.1309 -0.0051 -0.1681 -0.2922 -0.3157 -0.3958 -0.4500 -0.4538 -0.4598 -0.3990 -0.2604 -0.3508 -0.4343 -0.6259 -0.6769 -0.6907 -0.6663 -0.6726 -0.5964 
1 0.0065 0.1078 0.0175 0.0496 -0.1030 -0.1732 -0.1861 -0.1739 -0.2949 -0.3466 -0.2423 0.1269 0.0435 -0.0572 -0.2618 -0.2219 -0.4136 -0.4344 -0.4181 -0.3469 
1 0.1924 0.0826 0.1766 0.1741 -0.0847 -0.0750 -0.1825 -0.1603 -0.2456 -0.2433 -0.1297 0.1642 0.0895 0.0399 -0.1857 -0.1851 -0.4241 -0.3423 -0.2600 -0.2795 
1 0.1648 0.2808 0.2036 0.0960 -0.0584 -0.0641 -0.1564 -0.1700 -0.2650 -0.3251 -0.1737 0.2139 0.0774 0.0412 -0.0392 -0.0513 -0.3364 -0.3082 -0.1797 -0.2589 
1 0.2333 0.3335 0.3487 0.1945 -0.0708 -0.0574 -0.1444 -0.2127 -0.2238 -0.2526 -0.1776 0.2607 0.1595 0.1360 0.0448 0.0385 -0.3270 -0.2886 -0.1288 -0.2465 
1 0.2832 0.3749 0.3974 0.1898 -0.0231 -0.0167 -0.1319 -0.0819 -0.1410 -0.2201 -0.0747 0.1830 0.1221 0.2272 0.0767 0.0415 -0.1885 -0.2687 -0.0965 -0.1288 
1 0.3151 0.4025 0.4463 0.2321 -0.0184 0.0167 -0.0280 -0.0110 -0.0877 -0.2051 -0.1908 0.1958 0.1532 0.1850 0.0171 -0.0585 -0.1313 -0.1432 -0.0173 -0.1309 
1 0.3386 0.4301 0.5219 0.3060 0.0359 0.0455 0.0156 -0.0108 -0.1324 -0.2348 -0.1435 0.1318 0.1893 0.2461 0.1090 0.0409 -0.1230 -0.0885 0.0371 -0.1220 
1 0.3382 0.4688 0.5855 0.3936 0.1277 0.1114 0.0959 0.0923 0.0092 -0.0016 0.1166 0.2673 0.1668 0.2212 0.1139 0.0699 -0.2102 -0.0948 0.0581 -0.0548 
1 0.3507 0.4735 0.6090 0.4680 0.1966 0.1548 0.0772 0.0726 0.0842 0.0938 0.3341 0.4669 0.2479 0.1600 -0.0673 -0.1874 -0.3356 -0.2069 -0.0362 -0.0844 
1 0.3705 0.4546 0.5839 0.5249 0.2945 0.1947 0.1122 0.1583 0.1562 0.1913 0.5394 0.5766 0.4066 0.3683 0.2493 0.1721 -0.1550 -0.2379 -0.0719 -0.0475 
1 0.3873 0.4431 0.5523 0.6092 0.4160 0.2592 0.1425 0.1968 0.1945 0.2206 0.6110 0.5683 0.4396 0.3783 0.3161 0.2330 -0.0663 -0.0707 -0.0008 -0.0102 
1 0.4252 0.4464 0.4894 0.6540 0.5495 0.3653 0.2757 0.2978 0.3030 0.3554 0.6086 0.5224 0.4969 0.3786 0.2717 0.1535 -0.0966 -0.0454 -0.0032 0.0257 
1 0.4386 0.4418 0.4485 0.5972 0.5808 0.3869 0.2392 0.2966 0.2864 0.3960 0.6174 0.4651 0.3897 0.2465 0.1896 0.0515 -0.1978 -0.1059 0.0069 -0.0364 
1 0.4299 0.4402 0.4343 0.5918 0.6235 0.4208 0.3311 0.3056 0.3445 0.4593 0.6125 0.4417 0.3830 0.2440 0.2241 0.1059 -0.1785 -0.0800 -0.0077 -0.0384 
1 0.4469 0.4539 0.4301 0.6084 0.6524 0.4427 0.3124 0.3150 0.3631 0.4970 0.6218 0.4339 0.4175 0.2662 0.2187 0.1017 -0.1817 -0.0588 0.0472 -0.0501 
1 0.4473 0.4419 0.4216 0.5906 0.6404 0.4920 0.4318 0.3616 0.3806 0.5362 0.5580 0.4296 0.4121 0.2860 0.1749 0.0497 -0.0871 0.0617 0.1574 0.0868 
1 0.4363 0.4267 0.3890 0.5469 0.6073 0.4674 0.3915 0.3244 0.3489 0.5760 0.5701 0.3645 0.3660 0.2677 0.1679 0.0573 -0.1788 -0.0675 0.1314 0.1498 
1 0.4268 0.4069 0.3408 0.4651 0.5457 0.4906 0.4111 0.3323 0.2737 0.4855 0.4198 0.2555 0.3471 0.1817 0.1114 0.0062 -0.0929 0.0543 0.0986 0.1054 
1 0.4264 0.3898 0.3079 0.4106 0.5228 0.4927 0.3750 0.3136 0.2813 0.5273 0.4174 0.1121 0.1799 0.0391 -0.0197 -0.0715 -0.2584 -0.1327 -0.0158 -0.0005 
1 0.4185 0.3772 0.2907 0.3964 0.5214 0.5027 0.3973 0.3350 0.3138 0.5877 0.4870 0.2143 0.1874 0.0585 -0.1149 -0.1513 -0.2972 -0.1734 -0.0026 0.0434 
1 0.4072 0.3645 0.2728 0.3920 0.5033 0.4642 0.3715 0.3511 0.3922 0.5624 0.3411 0.1368 0.1632 0.0085 -0.1545 -0.1699 -0.1954 0.0168 0.1091 0.1647 
1 0.3711 0.3493 0.2356 0.3372 0.4375 0.4353 0.3841 0.2925 0.4088 0.5162 0.2220 0.0585 0.0910 -0.1313 -0.0883 -0.1037 -0.2431 -0.0266 0.0764 0.1070 
1 0.3256 0.3183 0.2276 0.2807 0.3368 0.3570 0.2327 0.2582 0.3439 0.3447 0.1108 0.0904 0.1680 -0.0129 -0.0383 0.0092 -0.1441 -0.0530 0.0519 0.0816 
1 0.2539 0.2360 0.2019 0.2480 0.2983 0.3327 0.1747 0.0849 0.0190 0.0330 -0.0391 -0.0711 0.1024 -0.0615 -0.2397 -0.2210 -0.3006 -0.1168 0.0341 0.0501 
1 0.2098 0.0797 0.1854 0.0723 0.1261 0.1086 0.1791 0.0640 0.0453 0.0889 -0.0762 -0.0007 -0.0164 -0.2418 -0.1357 -0.1003 -0.0766 -0.1131 -0.1035 -0.0577 
1 0.1402 -0.0489 0.0058 -0.0503 0.0072 -0.0332 0.0900 0.0726 0.1254 0.0838 0.0370 -0.0479 0.0034 -0.1111 -0.0184 0.0657 0.1500 0.0941 -0.0144 0.0068 
1 0.0124 -0.1280 -0.0969 -0.0525 -0.0389 0.0488 0.1871 0.1095 0.1809 0.1595 -0.0050 -0.0245 -0.0961 -0.1014 0.0897 0.1695 0.3204 0.2467 0.1651 0.2080 
1 -0.2948 -0.0687 -0.0572 -0.0868 0.0243 0.1042 0.1357 0.1964 0.1528 0.1025 -0.0159 -0.0235 -0.0980 -0.0137 0.1406 0.1817 0.3422 0.2745 0.1280 0.1137 
1 0.0225 -0.0868 -0.1297 -0.0351 -0.0709 0.0954 0.1228 0.0339 0.1583 0.0952 -0.0112 -0.0790 -0.0881 -0.0171 0.2133 0.3349 0.5402 0.3927 0.2903 0.2356 
1 -0.2118 -0.0589 -0.1126 -0.1888 -0.1092 0.0097 -0.0382 0.0631 0.0165 -0.0520 0.0819 -0.0045 -0.0373 0.0711 0.2323 0.2926 0.4352 0.4493 0.3937 0.3628 
1 -0.0754 -0.1245 -0.2626 -0.1929 -0.1699 -0.1060 -0.0476 -0.0614 -0.0032 0.0287 0.0121 -0.0553 0.0269 0.1901 0.2006 0.3388 0.4512 0.5062 0.3892 0.3677 
1 -0.1258 -0.0419 -0.0977 -0.0850 -0.1524 -0.1196 -0.1649 -0.0406 -0.0017 -0.0176 -0.0433 0.0583 0.0641 0.0649 0.1468 0.3202 0.4476 0.4518 0.3870 0.3698 
1 -0.2571 -0.2416 -0.2439 -0.1951 -0.1593 -0.0453 -0.0734 -0.0621 -0.0239 0.0785 -0.0094 0.0289 0.0009 0.1053 0.2628 0.2421 0.3884 0.4066 0.3581 0.3701 
1 -0.2868 -0.2608 -0.1874 -0.2130 -0.1295 -0.0602 0.0575 -0.0226 -0.0195 -0.0788 -0.0940 -0.0681 0.0130 0.1271 0.2279 0.2097 0.4890 0.4173 0.2648 0.3233 
1 -0.2745 -0.1834 -0.1477 -0.2193 -0.2521 -0.1420 -0.0306 -0.0389 0.0013 -0.1201 -0.1615 -0.1135 -0.0204 0.1688 0.1839 0.2120 0.4459 0.4421 0.3337 0.3155 
1 -0.3688 -0.3611 -0.3396 -0.3219 -0.1766 -0.1796 -0.0501 0.0054 -0.0230 -0.1127 -0.1317 -0.0633 -0.1136 0.0180 0.1369 0.2111 0.5255 0.4021 0.3569 0.3722 
1 -0.2099 -0.3185 -0.4154 -0.3317 -0.2321 -0.1085 -0.1708 -0.0258 -0.0676 -0.1081 -0.1797 -0.2031 -0.0830 0.0554 0.1092 0.1999 0.4492 0.3654 0.3025 0.2983 
1 -0.4106 -0.4797 -0.3852 -0.2503 -0.2599 -0.1922 -0.1284 -0.0858 -0.1183 -0.1563 -0.1195 -0.1499 -0.1314 0.0875 0.1460 0.2184 0.4546 0.3144 0.3030 0.2642 
1 -0.2940 -0.3545 -0.2892 -0.2076 -0.1955 -0.3232 -0.1220 -0.0778 -0.0928 -0.0738 -0.0991 -0.0462 -0.0904 0.0565 0.1428 0.1371 0.4919 0.4275 0.3953 0.3021 
1 -0.4410 -0.3321 -0.2790 -0.2254 -0.3547 -0.3836 -0.3147 -0.2303 -0.0531 -0.1136 -0.2406 -0.1640 -0.0969 0.0207 0.1278 0.1918 0.4000 0.3621 0.2845 0.2650 
1 -0.2344 -0.2252 -0.2617 -0.3507 -0.1773 -0.2231 -0.0788 -0.0940 0.0178 -0.0240 -0.1438 -0.1387 -0.0969 0.0017 0.0251 0.2718 0.4542 0.4223 0.3233 0.3434 
1 -0.3972 -0.5591 -0.3092 -0.3308 -0.1600 -0.1569 -0.0732 -0.0918 -0.0631 -0.1271 -0.0955 -0.0728 -0.0115 0.0187 0.0892 0.2730 0.4753 0.5302 0.3036 0.2913 
1 -0.1718 -0.1803 -0.1508 -0.2278 -0.1647 -0.0224 -0.0467 0.0340 -0.0185 -0.0604 0.0197 -0.0873 -0.0868 0.0988 0.1773 0.2239 0.4667 0.4958 0.2754 0.2823 
1 -0.0582 -0.1097 -0.1455 -0.1419 -0.0355 0.0260 -0.0662 0.0294 0.0176 -0.0055 0.0063 -0.0637 0.0493 0.0898 0.1051 0.1350 0.5523 0.5247 0.2426 0.2788 
1 -0.1947 -0.1664 -0.1965 -0.1961 -0.0496 0.0161 0.1453 0.0232 -0.0136 -0.0194 -0.0579 -0.1447 -0.0936 0.0174 0.2233 0.1785 0.3916 0.3407 0.2272 0.1840 
1 -0.1265 -0.0119 -0.0794 -0.0124 -0.0436 -0.0526 0.0068 0.0883 0.0290 -0.1345 -0.1954 -0.1700 -0.0490 0.0467 0.2384 0.2931 0.4468 0.2972 0.2062 0.2201 
1 -0.2288 -0.2786 -0.1240 -0.1287 -0.0804 -0.0757 0.0152 0.0516 0.0050 -0.0605 -0.0830 -0.1705 -0.0739 -0.0057 0.2504 0.2540 0.3406 0.2672 0.1187 0.1326 
1 -0.1013 -0.2251 -0.2871 -0.2957 -0.1791 -0.1432 0.0548 -0.0324 -0.0084 -0.0280 -0.1324 -0.1822 -0.0110 0.0062 0.0604 0.2400 0.3913 0.1782 0.0366 0.1047 
1 0.0597 -0.3258 -0.2863 -0.2661 -0.0910 -0.0466 0.0629 0.0535 -0.0923 -0.0587 -0.2052 -0.2124 -0.2179 -0.1630 0.1091 0.1582 0.1815 0.0432 -0.0431 -0.0279 
1 -0.1400 -0.1554 -0.1774 -0.2674 -0.2030 -0.0957 -0.1147 -0.1750 -0.0854 -0.1076 -0.2214 -0.2790 -0.3217 -0.2215 0.0437 0.0354 0.0877 -0.0484 -0.1316 -0.1758 
1 -0.2208 -0.3218 -0.3797 -0.2679 -0.2379 -0.1588 -0.2372 -0.1525 -0.0990 -0.1451 -0.2363 -0.4492 -0.4150 -0.3017 -0.1833 -0.1477 -0.1089 -0.2352 -0.3270 -0.3385 
1 -0.3640 -0.4192 -0.3688 -0.4159 -0.2857 -0.3141 -0.1863 -0.2531 -0.1784 -0.2191 -0.3291 -0.4399 -0.3645 -0.3271 -0.2463 -0.2633 -0.2181 -0.3977 -0.4063 -0.3805 
1 -0.3986 -0.2115 -0.2841 -0.4859 -0.3449 -0.2990 -0.2091 -0.2750 -0.2563 -0.3237 -0.3844 -0.4519 -0.5177 -0.3798 -0.2219 -0.3006 -0.2843 -0.4469 -0.5685 -0.4704 
1 -0.3147 -0.2890 -0.2575 -0.2576 -0.4152 -0.1455 -0.1483 -0.2942 -0.3309 -0.3591 -0.3857 -0.5888 -0.5682 -0.4187 -0.3961 -0.5048 -0.4687 -0.5863 -0.6594 -0.5063 
