55 20
1 -0.7552 -0.8590 -0.7414 -0.7910 -0.7536 -0.6855 -0.7764 -0.6641 -0.6193 -0.4947 -0.5148 -0.4987 -0.5431 -0.4275 -0.5042 -0.3910 -0.3259 -0.2439 -0.3028 -0.3207 
1 -0.7743 -0.8019 -0.6002 -0.7330 -0.7534 -0.7841 -0.6651 -0.6020 -0.5484 -0.5136 -0.3856 -0.5021 -0.4710 -0.4203 -0.4444 -0.3620 -0.3528 -0.2798 -0.3012 -0.2794 
1 -0.7551 -0.7409 -0.6512 -0.6695 -0.8198 -0.6981 -0.7330 -0.6285 -0.5691 -0.4298 -0.4364 -0.5280 -0.4772 -0.3972 -0.3801 -0.3566 -0.3078 -0.2551 -0.3180 -0.3606 
1 -0.6824 -0.8156 -0.7033 -0.7831 -0.7611 -0.8239 -0.5779 -0.6884 -0.6573 -0.4583 -0.4787 -0.4328 -0.4472 -0.4360 -0.4696 -0.3725 -0.3017 -0.2497 -0.2576 -0.2636 
1 -0.7296 -0.6461 -0.6532 -0.7688 -0.6402 -0.6479 -0.5946 -0.6453 -0.6016 -0.3551 -0.3461 -0.4056 -0.4960 -0.5120 -0.3859 -0.3174 -0.3413 -0.1980 -0.2370 -0.2943 
1 -0.5303 -0.6056 -0.6757 -0.6462 -0.6184 -0.6710 -0.8230 -0.6628 -0.6204 -0.5907 -0.3537 -0.4191 -0.5211 -0.4363 -0.4525 -0.3509 -0.2941 -0.2351 -0.2731 -0.3286 
1 -0.1762 -0.1887 -0.3518 -0.5104 -0.6382 -0.6912 -0.5652 -0.5840 -0.6052 -0.4430 -0.4888 -0.4317 -0.4793 -0.4393 -0.4088 -0.3589 -0.3365 -0.2153 -0.2452 -0.3019 
1 -0.0783 -0.0384 -0.0353 -0.3050 -0.4486 -0.4280 -0.3863 -0.5346 -0.5484 -0.2904 -0.1521 -0.1297 -0.2345 -0.3776 -0.3283 -0.3240 -0.3122 -0.1811 -0.1127 -0.2899 
1 -0.0606 0.0773 0.0210 -0.2075 -0.4456 -0.3697 -0.3823 -0.3238 -0.3210 -0.1138 -0.1649 -0.2614 -0.3027 -0.3746 -0.3308 -0.2575 -0.2443 -0.1353 -0.0757 -0.1905 
1 -0.0472 0.0733 0.0153 -0.1618 -0.3645 -0.3479 -0.3199 -0.2335 -0.2873 -0.1145 -0.1226 -0.0373 -0.1063 -0.2560 -0.1416 -0.1462 -0.2428 -0.1694 -0.0964 -0.1589 
1 -0.0324 0.0859 0.0241 -0.1471 -0.3521 -0.3168 -0.2834 -0.2635 -0.2705 -0.0302 -0.0181 0.0298 -0.0506 -0.2836 -0.2727 -0.2132 -0.2015 -0.0487 0.0704 -0.1380 
1 -0.0280 0.0675 0.0125 -0.1387 -0.3605 -0.3718 -0.3475 -0.2757 -0.2455 0.0037 -0.0165 0.0723 -0.0212 -0.2736 -0.2003 -0.1477 -0.2409 -0.0325 0.0147 -0.1593 
1 -0.0204 0.0809 0.0304 -0.1240 -0.3726 -0.3550 -0.3153 -0.2837 -0.2268 0.0466 0.0138 0.1100 0.0165 -0.1585 -0.1077 -0.0846 -0.2697 -0.1357 -0.0452 -0.1499 
1 -0.0108 0.0957 0.0376 -0.1124 -0.3375 -0.3243 -0.2636 -0.2585 -0.2565 -0.0015 0.0308 0.0896 -0.0081 -0.1829 -0.0737 -0.0192 -0.2214 -0.1274 -0.1043 -0.1497 
1 -0.0064 0.1067 0.0380 -0.0918 -0.2454 -0.2392 -0.1979 -0.1570 -0.1173 0.0764 0.0679 0.0513 0.0167 0.1176 0.1339 0.1783 0.0080 -0.0396 -0.0331 -0.0709 
1 0.1577 0.2958 0.3209 0.3701 0.3042 0.1252 0.1915 0.1798 0.3132 0.4568 0.4125 0.4038 0.4813 0.5347 0.5629 0.6357 0.2679 0.2096 0.2840 0.1476 
1 0.2547 0.3090 0.3274 0.4249 0.4097 0.3238 0.2260 0.2435 0.4563 0.6181 0.5236 0.4798 0.5707 0.5411 0.5654 0.6034 0.4246 0.1584 0.2479 0.2297 
1 0.2474 0.4025 0.3682 0.4498 0.5526 0.4845 0.3467 0.3103 0.5061 0.6434 0.5546 0.5469 0.5358 0.5533 0.6273 0.4974 0.4800 0.3069 0.4942 0.3785 
1 0.2940 0.3984 0.4134 0.4777 0.5716 0.5549 0.4250 0.3194 0.6049 0.7099 0.5498 0.5133 0.5383 0.4545 0.4347 0.4560 0.3764 0.2603 0.4377 0.3081 
1 0.3082 0.3752 0.3932 0.4504 0.5662 0.5348 0.3069 0.3381 0.6293 0.6772 0.5588 0.5976 0.5513 0.5007 0.4918 0.4569 0.4042 0.4076 0.5221 0.3935 
1 0.3019 0.3764 0.3906 0.4584 0.5903 0.5440 0.2901 0.3953 0.6145 0.5859 0.4924 0.5474 0.5157 0.4871 0.4591 0.4229 0.3804 0.2931 0.3571 0.2980 
1 0.3062 0.3818 0.3940 0.4553 0.6158 0.5799 0.3334 0.3827 0.7095 0.6655 0.4573 0.5202 0.5493 0.5073 0.4259 0.4305 0.3506 0.3216 0.3729 0.2809 
1 0.3026 0.3880 0.3958 0.4698 0.6289 0.6060 0.4030 0.4723 0.7454 0.6189 0.4684 0.4982 0.4731 0.4871 0.3299 0.3549 0.2810 0.3399 0.3537 0.3638 
1 0.3115 0.3718 0.3890 0.4669 0.6524 0.6435 0.4175 0.5200 0.6895 0.5642 0.4936 0.5020 0.4640 0.5307 0.4049 0.4186 0.3322 0.3237 0.3652 0.3608 
1 0.3114 0.3781 0.3892 0.4272 0.6058 0.5862 0.4225 0.4587 0.6571 0.4653 0.3768 0.4307 0.4631 0.4995 0.3542 0.3797 0.4210 0.4228 0.3397 0.3427 
1 0.3025 0.3805 0.3772 0.4373 0.6052 0.5879 0.4140 0.5562 0.6581 0.4177 0.3786 0.4238 0.3882 0.5190 0.4366 0.2734 0.2996 0.2817 0.1781 0.3842 
1 0.2994 0.3815 0.3704 0.4577 0.6177 0.5979 0.4254 0.5267 0.6060 0.3755 0.3201 0.3583 0.4219 0.4066 0.2681 0.2045 0.3234 0.2208 0.2445 0.3547 
1 0.2981 0.3905 0.3626 0.4703 0.6440 0.6136 0.4804 0.6292 0.6837 0.3512 0.3636 0.5297 0.5160 0.3359 0.2688 0.1262 0.2794 0.2275 0.2270 0.1924 
1 0.2971 0.3944 0.3401 0.4519 0.6177 0.5733 0.4811 0.6457 0.6846 0.3678 0.3097 0.3706 0.3979 0.4168 0.3652 0.1827 0.2988 0.2715 0.2106 0.2704 
1 0.2812 0.3910 0.3216 0.4626 0.6108 0.5403 0.4877 0.6298 0.6293 0.3295 0.3039 0.4359 0.4267 0.4869 0.4861 0.2349 0.2980 0.3266 0.2674 0.2662 
1 0.2635 0.3779 0.3167 0.4855 0.6132 0.5238 0.4501 0.6563 0.6219 0.2580 0.3234 0.4419 0.4486 0.4736 0.5037 0.2474 0.3575 0.2149 0.1336 0.2070 
1 0.2391 0.3752 0.3037 0.5213 0.6216 0.5220 0.4894 0.6763 0.5945 0.2364 0.3179 0.4540 0.4546 0.4705 0.4910 0.2539 0.4140 0.2689 0.1105 0.2030 
1 0.2083 0.3428 0.3170 0.5400 0.5955 0.4868 0.5140 0.6639 0.5267 0.2776 0.3173 0.3988 0.3956 0.4202 0.4812 0.2243 0.3477 0.2406 0.1256 0.1226 
1 0.1894 0.3509 0.3455 0.5571 0.5815 0.4665 0.5352 0.6251 0.4373 0.2230 0.2660 0.3712 0.3993 0.2805 0.2563 0.1797 0.2757 0.1872 0.1143 0.1912 
1 0.1992 0.3366 0.3596 0.5597 0.5484 0.4345 0.5851 0.6107 0.3984 0.2048 0.2447 0.2852 0.2611 0.2019 0.2617 0.2016 0.2469 0.1349 0.0619 0.1734 
1 0.2264 0.3034 0.3361 0.4936 0.4926 0.3881 0.5090 0.4497 0.2814 0.1338 0.1345 0.1030 0.1309 0.1514 0.1995 0.0641 0.1728 0.0680 -0.0657 -0.0639 
1 0.2577 0.2502 0.2892 0.3670 0.3653 0.3477 0.5413 0.4313 0.1517 0.0635 0.0644 0.0529 0.1009 0.1248 0.1830 0.0173 0.0413 0.0163 -0.0152 0.0434 
1 0.2597 0.1895 0.2763 0.3033 0.2845 0.2802 0.4139 0.3368 0.0275 -0.0729 -0.0348 -0.0257 0.0238 0.0470 0.0611 -0.0272 0.0037 -0.0846 -0.1091 0.0155 
1 0.2423 0.1372 0.2452 0.2129 0.2424 0.3025 0.3017 0.2045 -0.0365 -0.0683 -0.0326 -0.0613 0.0537 0.0442 0.0850 0.0830 0.1269 0.0765 0.0466 0.1514 
1 0.1928 0.1336 0.0823 0.1692 0.1844 0.2076 0.3810 0.2142 -0.1280 -0.1209 -0.0634 -0.1027 0.0456 -0.0084 -0.0022 -0.0058 0.0347 0.0047 -0.0084 0.1020 
1 0.1236 0.0567 -0.0416 0.0637 0.1446 0.2125 0.3169 0.1560 -0.1922 -0.2138 -0.1763 -0.1604 -0.0510 -0.1135 -0.0824 -0.0859 -0.0470 -0.0831 -0.0621 0.0345 
1 0.0714 -0.0283 -0.0662 0.0351 0.0290 0.1310 0.2403 0.1180 -0.1821 -0.1916 -0.1303 -0.1824 -0.1676 -0.0893 -0.0777 -0.0677 -0.0906 -0.0890 -0.0971 0.0242 
1 0.0386 -0.2422 -0.1474 -0.1111 -0.0661 -0.0885 0.0938 -0.1034 -0.2179 -0.2853 -0.2252 -0.2959 -0.2537 -0.1507 -0.1276 -0.1876 -0.0853 -0.1440 -0.1025 0.0497 
1 -0.0125 -0.1866 -0.1718 -0.1371 -0.1118 -0.1055 -0.0514 -0.1566 -0.2922 -0.1948 -0.2338 -0.2614 -0.3400 -0.2133 -0.1548 -0.2049 -0.2268 -0.2054 -0.1304 -0.0152 
1 -0.0208 -0.1074 -0.1092 -0.1837 -0.2421 -0.0193 0.0522 -0.1008 -0.2076 -0.2293 -0.2421 -0.3146 -0.3914 -0.2752 -0.2165 -0.1987 -0.1989 -0.1910 -0.1776 -0.0447 
1 -0.1302 -0.1580 -0.1913 -0.3438 -0.3631 -0.1063 0.0488 -0.1507 -0.2654 -0.3187 -0.2568 -0.3615 -0.3189 -0.1979 -0.2000 -0.1753 -0.2661 -0.2082 -0.1605 -0.1352 
1 -0.0640 -0.1911 -0.2400 -0.2482 -0.3925 -0.2758 -0.0815 -0.3156 -0.3043 -0.2875 -0.2624 -0.3377 -0.2843 -0.2778 -0.3445 -0.2788 -0.2188 -0.2440 -0.2427 -0.1939 
1 -0.1909 -0.2676 -0.1748 -0.2347 -0.4388 -0.3503 -0.3486 -0.3519 -0.3691 -0.2872 -0.2934 -0.4029 -0.3576 -0.3276 -0.3330 -0.2229 -0.2346 -0.2068 -0.2364 -0.1519 
1 -0.1532 -0.6088 -0.3692 -0.3923 -0.3673 -0.2990 -0.1966 -0.3807 -0.4436 -0.4315 -0.3832 -0.4347 -0.4271 -0.3856 -0.4057 -0.2546 -0.2490 -0.1617 -0.1742 -0.1878 
1 -0.0981 -0.3444 -0.2772 -0.4871 -0.5346 -0.4307 -0.4873 -0.5849 -0.5086 -0.3720 -0.3452 -0.4682 -0.4615 -0.4424 -0.4509 -0.3140 -0.2905 -0.2409 -0.3190 -0.2886 
1 -0.1592 -0.3281 -0.3315 -0.3961 -0.4907 -0.4653 -0.3723 -0.4209 -0.3726 -0.3664 -0.3339 -0.3714 -0.3653 -0.3355 -0.3197 -0.2238 -0.2005 -0.1791 -0.2104 -0.1347 
1 -0.3032 -0.3231 -0.3296 -0.4869 -0.5170 -0.5539 -0.5708 -0.5596 -0.5735 -0.5772 -0.5419 -0.5727 -0.5452 -0.4514 -0.4862 -0.2855 -0.2612 -0.2537 -0.2547 -0.3389 
1 -0.2257 -0.6640 -0.5759 -0.6056 -0.6185 -0.6273 -0.7386 -0.6052 -0.5679 -0.4970 -0.4032 -0.5287 -0.5037 -0.4673 -0.4856 -0.3216 -0.3542 -0.2600 -0.3104 -0.3245 
1 -0.4200 -0.4357 -0.5631 -0.6010 -0.5870 -0.5050 -0.4661 -0.6303 -0.5172 -0.5361 -0.4744 -0.5782 -0.5237 -0.4481 -0.4830 -0.2716 -0.2396 -0.2690 -0.2769 -0.2546 
1 -0.3210 -0.4745 -0.6029 -0.6207 -0.6549 -0.6177 -0.5795 -0.5842 -0.5534 -0.4847 -0.4328 -0.5115 -0.4913 -0.4335 -0.4670 -0.2998 -0.2908 -0.2169 -0.2241 -0.2993 
