49 20
1 -0.2366 -0.3910 -0.2519 -0.5129 -0.6125 -0.6721 -0.6495 -0.6018 -0.5239 -0.4243 -0.3420 -0.4927 -0.6081 -0.5206 -0.5355 -0.3137 -0.2309 -0.2673 -0.2837 -0.3294 
1 -0.1564 -0.2272 -0.1732 -0.3839 -0.4983 -0.5139 -0.5451 -0.4614 -0.4821 -0.2863 -0.1776 -0.3203 -0.4820 -0.4254 -0.4641 -0.2520 -0.1936 -0.2846 -0.2915 -0.2340 
1 -0.1752 -0.1612 -0.1666 -0.4770 -0.5564 -0.5496 -0.6477 -0.5190 -0.4664 -0.4190 -0.2633 -0.3187 -0.4559 -0.4525 -0.3395 -0.1730 -0.1446 -0.2435 -0.3018 -0.2468 
1 -0.1708 -0.1783 -0.1628 -0.3726 -0.5248 -0.5004 -0.4923 -0.4232 -0.4480 -0.2285 -0.0866 -0.2689 -0.2680 -0.2778 -0.2334 -0.1140 -0.0115 -0.1966 -0.3019 -0.2777 
1 -0.1939 -0.1344 -0.0858 -0.4348 -0.5164 -0.5703 -0.5341 -0.4940 -0.5455 -0.3511 -0.1953 -0.3960 -0.4143 -0.4089 -0.2951 -0.1359 -0.1084 -0.2689 -0.3739 -0.2721 
1 -0.2151 -0.1304 -0.0687 -0.4268 -0.5640 -0.5220 -0.4935 -0.5970 -0.4669 -0.2742 -0.1541 -0.3777 -0.3223 -0.3586 -0.2567 -0.1067 -0.1998 -0.2869 -0.2083 -0.2428 
1 -0.2423 -0.1230 -0.0537 -0.3901 -0.5084 -0.5321 -0.5064 -0.3890 -0.4000 -0.3038 -0.1694 -0.2147 -0.2217 -0.2514 -0.1285 0.0336 -0.0924 -0.2564 -0.3450 -0.1958 
1 -0.2185 -0.1278 -0.0525 -0.3195 -0.4583 -0.4556 -0.4129 -0.2855 -0.3199 -0.1396 -0.0187 -0.1485 -0.1960 -0.1865 -0.0661 0.0891 -0.0572 -0.2168 -0.2707 -0.1974 
1 -0.2098 -0.1050 -0.0376 -0.3027 -0.4162 -0.4597 -0.4463 -0.3166 -0.3687 -0.1618 -0.0400 -0.1483 -0.2128 -0.2174 -0.1221 0.0075 -0.1423 -0.2175 -0.3067 -0.2186 
1 -0.1727 -0.0931 -0.0638 -0.3625 -0.4153 -0.4039 -0.3133 -0.2958 -0.4107 -0.0780 -0.0016 -0.1255 -0.2406 -0.3039 -0.2151 -0.0845 -0.0071 -0.1504 -0.1429 -0.1328 
1 -0.1453 -0.0935 -0.0771 -0.4004 -0.4231 -0.4485 -0.3885 -0.2981 -0.3606 -0.0855 -0.0728 -0.2296 -0.4160 -0.3311 -0.2570 -0.1282 -0.1418 -0.2207 -0.0732 -0.1501 
1 -0.1091 -0.0752 -0.0799 -0.2981 -0.3842 -0.4304 -0.4384 -0.3779 -0.3079 -0.0295 0.0371 -0.1209 -0.1928 -0.1955 -0.1757 -0.0455 -0.0995 -0.2171 -0.0533 -0.1418 
1 -0.0535 0.0173 0.0307 0.0381 -0.0625 -0.1185 -0.0387 0.0350 0.1636 0.3104 0.3314 0.1883 0.3150 0.3605 0.3051 0.4097 0.2487 0.0550 -0.0088 -0.0013 
1 0.1187 0.1682 0.1052 0.1474 0.2076 0.1529 0.0178 0.0203 0.1627 0.2536 0.3720 0.2586 0.2363 0.3711 0.4196 0.6526 0.3977 0.1805 0.0939 0.1742 
1 0.2071 0.1910 0.0770 0.1777 0.3427 0.2621 0.1498 0.1366 0.3574 0.5568 0.5276 0.3694 0.4404 0.5233 0.4847 0.5185 0.3376 0.0799 0.3463 0.3619 
1 0.2384 0.2165 0.1348 0.1978 0.4104 0.3502 0.2031 0.1530 0.2913 0.5723 0.5143 0.3653 0.4587 0.4809 0.4231 0.3861 0.2708 0.0988 0.2700 0.3119 
1 0.2442 0.2181 0.1402 0.1836 0.3986 0.3725 0.2273 0.2445 0.3759 0.5259 0.4837 0.3506 0.4743 0.4147 0.2878 0.3578 0.2751 0.2121 0.2042 0.2551 
1 0.2418 0.2236 0.1220 0.1482 0.3694 0.4103 0.2864 0.1978 0.4256 0.5506 0.3535 0.3918 0.3869 0.3667 0.3191 0.2972 0.2386 0.2387 0.2711 0.3294 
1 0.2481 0.2353 0.1315 0.2092 0.4006 0.4234 0.3592 0.2974 0.4362 0.5662 0.3725 0.4275 0.4291 0.4649 0.3545 0.3754 0.1808 0.1975 0.2578 0.3370 
1 0.2426 0.2355 0.1152 0.1839 0.4035 0.4118 0.3499 0.2585 0.4653 0.5667 0.2810 0.3023 0.4342 0.4383 0.2924 0.2295 0.2133 0.1343 0.1964 0.2300 
1 0.2396 0.2351 0.0947 0.1995 0.3504 0.3849 0.2907 0.2087 0.4840 0.5116 0.2129 0.1757 0.2821 0.2935 0.1784 0.1034 0.1435 0.2018 0.2299 0.3132 
1 0.2353 0.2384 0.1158 0.1822 0.3402 0.4018 0.3788 0.2513 0.4183 0.4338 0.2032 0.2212 0.3587 0.3344 0.2592 0.0971 0.1335 0.2210 0.2268 0.3011 
1 0.2291 0.2287 0.1292 0.1997 0.3768 0.3965 0.3871 0.2991 0.4967 0.3895 0.1564 0.1935 0.2905 0.3052 0.2527 0.1178 0.1382 0.1573 0.1629 0.2336 
1 0.2168 0.2282 0.1399 0.1976 0.2975 0.3230 0.3049 0.2818 0.4351 0.2782 0.1447 0.2243 0.3307 0.3094 0.2563 0.0363 0.0950 0.2127 0.1877 0.1870 
1 0.2021 0.2133 0.1324 0.1975 0.3251 0.3355 0.3236 0.3237 0.4887 0.2550 0.1310 0.1876 0.2667 0.2567 0.2147 -0.1126 -0.0493 0.1903 0.1815 0.1779 
1 0.1765 0.2133 0.1494 0.2513 0.3005 0.3767 0.3112 0.3668 0.4345 0.2143 0.1269 0.1204 0.2387 0.2787 0.2205 -0.0849 -0.0309 0.1845 0.2020 0.2446 
1 0.1483 0.1968 0.1341 0.2658 0.3152 0.3361 0.2237 0.3985 0.4841 0.1370 0.1201 0.1829 0.2188 0.2237 0.1526 0.0639 0.0512 0.2511 0.2198 0.2250 
1 0.1119 0.1721 0.1175 0.2821 0.3193 0.3179 0.2520 0.3844 0.4402 0.2258 0.1852 0.2100 0.2382 0.2543 0.2196 0.0254 0.0071 0.2430 0.2135 0.1171 
1 0.0770 0.1639 0.1141 0.3010 0.2766 0.3058 0.2705 0.4290 0.4530 0.1251 0.1213 0.2559 0.2566 0.2027 0.1320 0.0859 0.0773 0.3702 0.3173 0.1858 
1 0.0843 0.1433 0.0970 0.2866 0.3004 0.3322 0.2464 0.1996 0.2953 0.1633 0.0940 0.2340 0.2897 0.2098 0.0867 -0.0102 0.0015 0.1187 0.0986 0.1196 
1 0.1253 0.1033 0.0833 0.2912 0.3238 0.2962 0.1932 0.3732 0.3231 -0.0167 0.0609 0.0678 0.0674 0.1895 0.1689 -0.0304 -0.0827 0.0998 0.0922 0.0615 
1 0.1614 0.0495 0.0657 0.1997 0.2161 0.2273 0.1877 0.2951 0.1970 0.0289 0.1119 0.1317 0.0754 0.0416 0.0263 -0.0941 -0.0829 0.2438 0.1874 0.0639 
1 0.1866 0.0171 0.1119 0.1870 0.2184 0.2694 0.2212 0.3462 0.2686 0.0552 0.0503 0.2534 0.2365 0.1014 0.0963 0.0812 0.0898 0.2206 0.2102 0.1629 
1 0.1626 0.0810 0.0781 0.2323 0.2374 0.2195 0.2317 0.2905 0.2370 -0.0252 -0.1127 0.1246 0.0868 0.0727 0.0590 0.0017 0.0216 0.2896 0.2608 0.0745 
1 0.1076 0.0566 0.0359 0.2684 0.2859 0.2157 0.2085 0.3091 0.1286 -0.2079 -0.1573 0.0380 0.0268 0.0842 0.0625 -0.0500 -0.0082 0.1533 0.1553 0.0074 
1 0.0384 0.0405 0.0522 0.3109 0.2841 0.1956 0.1234 0.1616 0.0297 -0.0908 -0.0106 0.1247 0.0514 0.0149 0.0060 0.0182 0.0977 0.2830 0.2787 0.0069 
1 0.0318 0.0272 0.1104 0.3079 0.2249 0.1901 0.2443 0.2156 0.0067 -0.0614 -0.0347 0.2064 0.1424 0.1465 0.1029 0.0140 0.1071 0.1358 0.1112 0.0371 
1 0.0857 -0.0192 0.1042 0.2421 0.1339 0.0271 0.0875 0.1398 -0.0731 -0.2068 -0.2110 -0.0158 -0.0984 -0.0294 -0.0665 -0.1515 -0.0631 0.0856 0.0848 -0.1105 
1 0.0936 -0.1580 0.0345 0.1726 0.0536 0.0103 0.1433 0.1157 -0.1082 -0.1960 -0.1663 -0.1968 -0.1793 -0.0367 -0.0210 -0.0750 0.0054 0.0377 0.0445 -0.0244 
1 0.0313 -0.0808 -0.0308 0.1325 0.0599 -0.0151 0.0848 0.1322 -0.1662 -0.2444 -0.1981 -0.1354 -0.1206 -0.0278 -0.0124 -0.0885 0.0480 -0.0318 -0.0949 -0.0604 
1 -0.0328 -0.0756 -0.0671 0.1588 0.0949 0.0269 0.0606 0.0471 -0.2246 -0.2701 -0.3067 -0.0086 -0.0412 -0.1104 -0.0580 -0.1152 -0.0158 -0.0204 -0.0632 -0.2294 
1 -0.0353 -0.1287 0.0480 0.0491 0.0664 0.0052 0.1357 0.0172 -0.1636 -0.1456 -0.1574 0.0146 0.0075 -0.0660 -0.0632 -0.0762 -0.0389 -0.0673 -0.0848 -0.0262 
1 -0.0494 -0.1446 -0.0221 -0.0088 -0.0636 -0.0288 0.0593 -0.1072 -0.2355 -0.3477 -0.2601 -0.1178 -0.0930 -0.2105 -0.1659 -0.2204 -0.1197 -0.1843 -0.1672 -0.1082 
1 -0.1383 -0.0729 -0.0634 0.0264 -0.1161 -0.1536 0.0170 -0.1238 -0.3745 -0.3781 -0.3180 -0.1829 -0.1798 -0.2685 -0.2559 -0.1845 -0.1499 -0.2073 -0.2733 -0.1915 
1 -0.1482 -0.2812 -0.2770 -0.1620 -0.2320 -0.1159 0.0535 -0.1142 -0.3196 -0.3510 -0.2466 -0.2679 -0.2890 -0.2837 -0.1886 -0.2345 -0.2055 -0.2831 -0.2779 -0.1531 
1 -0.1447 -0.1265 -0.1890 -0.2052 -0.3058 -0.1274 0.0073 -0.2649 -0.3880 -0.3237 -0.3067 -0.3586 -0.3736 -0.3675 -0.3287 -0.2721 -0.2261 -0.3139 -0.2754 -0.2271 
1 -0.2098 -0.2073 -0.2475 -0.2737 -0.3010 -0.1251 -0.0576 -0.3947 -0.4232 -0.3152 -0.3705 -0.4058 -0.3500 -0.4701 -0.4006 -0.2881 -0.2644 -0.3675 -0.3286 -0.2582 
1 -0.5784 -0.3871 -0.3208 -0.4625 -0.5428 -0.4165 -0.2969 -0.4139 -0.3610 -0.3738 -0.3459 -0.3728 -0.4195 -0.4269 -0.3244 -0.2447 -0.2197 -0.2872 -0.2613 -0.2120 
1 -0.6499 -0.3918 -0.3138 -0.4344 -0.4322 -0.4172 -0.3803 -0.4514 -0.3604 -0.3845 -0.2682 -0.3962 -0.4653 -0.5127 -0.4068 -0.3153 -0.1932 -0.3071 -0.3162 -0.2773 
